<?xml version="1.0"?>
<opencv_storage>
<cascade>
  <stageType>BOOST</stageType>
  <featureType>HAAR</featureType>
  <height>20</height>
  <width>20</width>
  <stageParams>
    <boostType>GAB</boostType>
    <minHitRate>9.9500000476837158e-01</minHitRate>
    <maxFalseAlarm>5.0000000000000000e-01</maxFalseAlarm>
    <weightTrimRate>9.4999999999999996e-01</weightTrimRate>
    <maxDepth>1</maxDepth>
    <maxWeakCount>100</maxWeakCount></stageParams>
  <featureParams>
    <maxCatCount>0</maxCatCount>
    <featSize>1</featSize>
    <mode>BASIC</mode></featureParams>
  <stageNum>17</stageNum>
  <stages>
    <!-- stage 0 -->
    <_>
      <maxWeakCount>7</maxWeakCount>
      <stageThreshold>-6.6648912429809570e-01</stageThreshold>
      <weakClassifiers>
        <_>
          <internalNodes>
            0 -1 75 1.1487979441881180e-01</internalNodes>
          <leafValues>
            -4.3488943576812744e-01 7.9428571462631226e-01</leafValues></_>
        <_>
          <internalNodes>
            0 -1 287 -2.3095695301890373e-02</internalNodes>
          <leafValues>
            6.8331217765808105e-01 -3.5107949376106262e-01</leafValues></_>
        <_>
          <internalNodes>
            0 -1 47 3.0080571770668030e-02</internalNodes>
          <leafValues>
            -2.2344094514846802e-01 6.8654948472976685e-01</leafValues></_>
        <_>
          <internalNodes>
            0 -1 239 5.7279516477137804e-04</internalNodes>
          <leafValues>
            2.4464808404445648e-01 -7.0673257112503052e-01</leafValues></_>
        <_>
          <internalNodes>
            0 -1 172 -8.7932031601667404e-03</internalNodes>
          <leafValues>
            -6.9553059339523315e-01 2.1347029507160187e-01</leafValues></_>
        <_>
          <internalNodes>
            0 -1 218 -2.5396018754690886e-03</internalNodes>
          <leafValues>
            -7.5928932428359985e-01 1.2316973507404327e-01</leafValues></_>
        <_>
          <internalNodes>
            0 -1 202 -4.1949362494051456e-03</internalNodes>
          <leafValues>
            5.3974622488021851e-01 -2.3836737871170044e-01</leafValues></_></weakClassifiers></_>
    <!-- stage 1 -->
    <_>
      <maxWeakCount>11</maxWeakCount>
      <stageThreshold>-8.9419740438461304e-01</stageThreshold>
      <weakClassifiers>
        <_>
          <internalNodes>
            0 -1 94 1.0129651427268982e-01</internalNodes>
          <leafValues>
            -4.3952801823616028e-01 7.0731705427169800e-01</leafValues></_>
        <_>
          <internalNodes>
            0 -1 254 -7.2840869426727295e-02</internalNodes>
          <leafValues>
            6.0728871822357178e-01 -3.7525063753128052e-01</leafValues></_>
        <_>
          <internalNodes>
            0 -1 22 2.8659094125032425e-02</internalNodes>
          <leafValues>
            -2.3912693560123444e-01 6.9033437967300415e-01</leafValues></_>
        <_>
          <internalNodes>
            0 -1 223 -4.3836897239089012e-03</internalNodes>
          <leafValues>
            -9.4274032115936279e-01 1.8893705308437347e-01</leafValues></_>
        <_>
          <internalNodes>
            0 -1 27 -3.7883035838603973e-02</internalNodes>
          <leafValues>
            7.2483545541763306e-01 -2.2611100971698761e-01</leafValues></_>
        <_>
          <internalNodes>
            0 -1 112 -1.0355513542890549e-02</internalNodes>
          <leafValues>
            6.0202974081039429e-01 -2.7749243378639221e-01</leafValues></_>
        <_>
          <internalNodes>
            0 -1 208 7.4751283973455429e-03</internalNodes>
          <leafValues>
            1.9873510301113129e-01 -7.9382479190826416e-01</leafValues></_>
        <_>
          <internalNodes>
            0 -1 191 4.8828395083546638e-03</internalNodes>
          <leafValues>
            1.9331383705139160e-01 -6.3182216882705688e-01</leafValues></_>
        <_>
          <internalNodes>
            0 -1 228 -2.3206971585750580e-02</internalNodes>
          <leafValues>
            6.9546687602996826e-01 -2.1623751521110535e-01</leafValues></_>
        <_>
          <internalNodes>
            0 -1 223 4.3597472831606865e-03</internalNodes>
          <leafValues>
            1.5833501517772675e-01 -8.5682690143585205e-01</leafValues></_>
        <_>
          <internalNodes>
            0 -1 122 3.6726943217217922e-03</internalNodes>
          <leafValues>
            1.4022810757160187e-01 -7.3305559158325195e-01</leafValues></_></weakClassifiers></_>
    <!-- stage 2 -->
    <_>
      <maxWeakCount>11</maxWeakCount>
      <stageThreshold>-6.8423563241958618e-01</stageThreshold>
      <weakClassifiers>
        <_>
          <internalNodes>
            0 -1 126 -5.4379455745220184e-02</internalNodes>
          <leafValues>
            8.4338897466659546e-01 -2.7634194493293762e-01</leafValues></_>
        <_>
          <internalNodes>
            0 -1 20 6.2581554055213928e-02</internalNodes>
          <leafValues>
            -2.8302150964736938e-01 5.5781543254852295e-01</leafValues></_>
        <_>
          <internalNodes>
            0 -1 29 -3.4757889807224274e-02</internalNodes>
          <leafValues>
            6.5386641025543213e-01 -1.6029548645019531e-01</leafValues></_>
        <_>
          <internalNodes>
            0 -1 97 2.6941157877445221e-02</internalNodes>
          <leafValues>
            -2.8978061676025391e-01 3.7352308630943298e-01</leafValues></_>
        <_>
          <internalNodes>
            0 -1 216 1.0890343692153692e-03</internalNodes>
          <leafValues>
            1.7217159271240234e-01 -6.1004722118377686e-01</leafValues></_>
        <_>
          <internalNodes>
            0 -1 180 2.6812558062374592e-03</internalNodes>
          <leafValues>
            -2.4794936180114746e-01 5.0809377431869507e-01</leafValues></_>
        <_>
          <internalNodes>
            0 -1 236 -3.6638937890529633e-02</internalNodes>
          <leafValues>
            -8.2410007715225220e-01 1.5349729359149933e-01</leafValues></_>
        <_>
          <internalNodes>
            0 -1 146 1.9335389137268066e-02</internalNodes>
          <leafValues>
            9.9390447139739990e-02 -8.7408936023712158e-01</leafValues></_>
        <_>
          <internalNodes>
            0 -1 176 3.0122186988592148e-02</internalNodes>
          <leafValues>
            -1.9818711280822754e-01 6.2126731872558594e-01</leafValues></_>
        <_>
          <internalNodes>
            0 -1 201 -5.9999208897352219e-03</internalNodes>
          <leafValues>
            7.4738907814025879e-01 -1.4163464307785034e-01</leafValues></_>
        <_>
          <internalNodes>
            0 -1 165 -4.2175240814685822e-03</internalNodes>
          <leafValues>
            5.7846856117248535e-01 -1.7538797855377197e-01</leafValues></_></weakClassifiers></_>
    <!-- stage 3 -->
    <_>
      <maxWeakCount>14</maxWeakCount>
      <stageThreshold>-7.3364156484603882e-01</stageThreshold>
      <weakClassifiers>
        <_>
          <internalNodes>
            0 -1 49 4.4049438089132309e-02</internalNodes>
          <leafValues>
            -1.8565401434898376e-01 7.5000000000000000e-01</leafValues></_>
        <_>
          <internalNodes>
            0 -1 14 6.3756480813026428e-02</internalNodes>
          <leafValues>
            -1.7705307900905609e-01 6.8726509809494019e-01</leafValues></_>
        <_>
          <internalNodes>
            0 -1 286 -4.9044676125049591e-02</internalNodes>
          <leafValues>
            5.2815693616867065e-01 -2.8236439824104309e-01</leafValues></_>
        <_>
          <internalNodes>
            0 -1 136 2.7830696199089289e-03</internalNodes>
          <leafValues>
            1.2184850871562958e-01 -8.2739400863647461e-01</leafValues></_>
        <_>
          <internalNodes>
            0 -1 0 -6.7049441859126091e-03</internalNodes>
          <leafValues>
            4.8147270083427429e-01 -2.7030378580093384e-01</leafValues></_>
        <_>
          <internalNodes>
            0 -1 170 5.9019224718213081e-03</internalNodes>
          <leafValues>
            1.8506525456905365e-01 -7.7924901247024536e-01</leafValues></_>
        <_>
          <internalNodes>
            0 -1 178 -4.0367849171161652e-02</internalNodes>
          <leafValues>
            6.1846196651458740e-01 -1.8689742684364319e-01</leafValues></_>
        <_>
          <internalNodes>
            0 -1 104 -1.2742169201374054e-02</internalNodes>
          <leafValues>
            5.1420164108276367e-01 -1.8888574838638306e-01</leafValues></_>
        <_>
          <internalNodes>
            0 -1 48 -9.8817916586995125e-03</internalNodes>
          <leafValues>
            4.9844270944595337e-01 -2.1379630267620087e-01</leafValues></_>
        <_>
          <internalNodes>
            0 -1 152 1.7092840280383825e-03</internalNodes>
          <leafValues>
            1.5229725837707520e-01 -6.9751507043838501e-01</leafValues></_>
        <_>
          <internalNodes>
            0 -1 324 1.8459311686456203e-03</internalNodes>
          <leafValues>
            -2.0174442231655121e-01 5.5394595861434937e-01</leafValues></_>
        <_>
          <internalNodes>
            0 -1 36 3.8901351392269135e-02</internalNodes>
          <leafValues>
            -9.7578868269920349e-02 7.8217262029647827e-01</leafValues></_>
        <_>
          <internalNodes>
            0 -1 169 -1.5537197468802333e-03</internalNodes>
          <leafValues>
            -5.4750901460647583e-01 2.0041817426681519e-01</leafValues></_>
        <_>
          <internalNodes>
            0 -1 30 -3.6673232913017273e-02</internalNodes>
          <leafValues>
            6.7602461576461792e-01 -1.7453555762767792e-01</leafValues></_></weakClassifiers></_>
    <!-- stage 4 -->
    <_>
      <maxWeakCount>14</maxWeakCount>
      <stageThreshold>-6.3696378469467163e-01</stageThreshold>
      <weakClassifiers>
        <_>
          <internalNodes>
            0 -1 256 -3.9278998970985413e-02</internalNodes>
          <leafValues>
            6.6267681121826172e-01 -2.5068870186805725e-01</leafValues></_>
        <_>
          <internalNodes>
            0 -1 116 2.1951295435428619e-02</internalNodes>
          <leafValues>
            -3.1068572402000427e-01 5.0685787200927734e-01</leafValues></_>
        <_>
          <internalNodes>
            0 -1 1 3.1415604054927826e-02</internalNodes>
          <leafValues>
            -2.6522734761238098e-01 4.6936410665512085e-01</leafValues></_>
        <_>
          <internalNodes>
            0 -1 220 -1.9493695581331849e-03</internalNodes>
          <leafValues>
            -5.7454121112823486e-01 1.6943970322608948e-01</leafValues></_>
        <_>
          <internalNodes>
            0 -1 311 3.2458009663969278e-03</internalNodes>
          <leafValues>
            -2.3204469680786133e-01 4.4598302245140076e-01</leafValues></_>
        <_>
          <internalNodes>
            0 -1 4 2.8077704831957817e-02</internalNodes>
          <leafValues>
            -1.9729006290435791e-01 5.2165085077285767e-01</leafValues></_>
        <_>
          <internalNodes>
            0 -1 6 -4.0949666872620583e-03</internalNodes>
          <leafValues>
            5.3543829917907715e-01 -1.7974247038364410e-01</leafValues></_>
        <_>
          <internalNodes>
            0 -1 137 -1.8808525055646896e-03</internalNodes>
          <leafValues>
            -6.2368255853652954e-01 1.6891533136367798e-01</leafValues></_>
        <_>
          <internalNodes>
            0 -1 265 -2.6177165564149618e-03</internalNodes>
          <leafValues>
            4.1038247942924500e-01 -2.2871159017086029e-01</leafValues></_>
        <_>
          <internalNodes>
            0 -1 93 -6.4735725522041321e-02</internalNodes>
          <leafValues>
            -7.0377022027969360e-01 1.4254730939865112e-01</leafValues></_>
        <_>
          <internalNodes>
            0 -1 162 1.5537707135081291e-02</internalNodes>
          <leafValues>
            -1.5959212183952332e-01 6.3098031282424927e-01</leafValues></_>
        <_>
          <internalNodes>
            0 -1 242 3.2804489135742188e-02</internalNodes>
          <leafValues>
            -1.5472649037837982e-01 5.9829884767532349e-01</leafValues></_>
        <_>
          <internalNodes>
            0 -1 214 -5.6027260143309832e-04</internalNodes>
          <leafValues>
            -5.7226288318634033e-01 1.7565923929214478e-01</leafValues></_>
        <_>
          <internalNodes>
            0 -1 190 -7.2883942630141973e-04</internalNodes>
          <leafValues>
            -7.0802462100982666e-01 1.4752967655658722e-01</leafValues></_></weakClassifiers></_>
    <!-- stage 5 -->
    <_>
      <maxWeakCount>18</maxWeakCount>
      <stageThreshold>-7.5485664606094360e-01</stageThreshold>
      <weakClassifiers>
        <_>
          <internalNodes>
            0 -1 72 2.6607888936996460e-01</internalNodes>
          <leafValues>
            -1.0548523068428040e-01 7.0297032594680786e-01</leafValues></_>
        <_>
          <internalNodes>
            0 -1 305 -1.9315738230943680e-02</internalNodes>
          <leafValues>
            5.9000808000564575e-01 -1.6534206271171570e-01</leafValues></_>
        <_>
          <internalNodes>
            0 -1 99 3.7242094986140728e-03</internalNodes>
          <leafValues>
            -2.8161767125129700e-01 3.8340118527412415e-01</leafValues></_>
        <_>
          <internalNodes>
            0 -1 263 -5.9024561196565628e-03</internalNodes>
          <leafValues>
            2.8310021758079529e-01 -3.1730362772941589e-01</leafValues></_>
        <_>
          <internalNodes>
            0 -1 320 9.4227623194456100e-03</internalNodes>
          <leafValues>
            -1.7667634785175323e-01 5.6068283319473267e-01</leafValues></_>
        <_>
          <internalNodes>
            0 -1 45 1.2831809930503368e-02</internalNodes>
          <leafValues>
            -3.2692047953605652e-01 2.6422286033630371e-01</leafValues></_>
        <_>
          <internalNodes>
            0 -1 7 2.2405534982681274e-02</internalNodes>
          <leafValues>
            -1.4434804022312164e-01 5.4950535297393799e-01</leafValues></_>
        <_>
          <internalNodes>
            0 -1 159 5.5215796455740929e-03</internalNodes>
          <leafValues>
            -1.3040612637996674e-01 6.6192257404327393e-01</leafValues></_>
        <_>
          <internalNodes>
            0 -1 173 3.3560588955879211e-02</internalNodes>
          <leafValues>
            -9.8201937973499298e-02 6.3534176349639893e-01</leafValues></_>
        <_>
          <internalNodes>
            0 -1 217 -1.3923964463174343e-02</internalNodes>
          <leafValues>
            -6.3265609741210938e-01 1.4676615595817566e-01</leafValues></_>
        <_>
          <internalNodes>
            0 -1 281 1.0989077854901552e-03</internalNodes>
          <leafValues>
            -1.7706410586833954e-01 5.1286804676055908e-01</leafValues></_>
        <_>
          <internalNodes>
            0 -1 34 5.6292399764060974e-02</internalNodes>
          <leafValues>
            -1.2930604815483093e-01 6.0859704017639160e-01</leafValues></_>
        <_>
          <internalNodes>
            0 -1 260 -1.1380005162209272e-03</internalNodes>
          <leafValues>
            2.2470445930957794e-01 -3.4931230545043945e-01</leafValues></_>
        <_>
          <internalNodes>
            0 -1 2 -1.5625526010990143e-01</internalNodes>
          <leafValues>
            9.0329748392105103e-01 -9.0296752750873566e-02</leafValues></_>
        <_>
          <internalNodes>
            0 -1 163 -2.1453811787068844e-03</internalNodes>
          <leafValues>
            4.2473688721656799e-01 -1.8842461705207825e-01</leafValues></_>
        <_>
          <internalNodes>
            0 -1 280 8.2353863399475813e-04</internalNodes>
          <leafValues>
            -1.5983752906322479e-01 4.4394648075103760e-01</leafValues></_>
        <_>
          <internalNodes>
            0 -1 149 -1.0587021708488464e-02</internalNodes>
          <leafValues>
            -6.1950725317001343e-01 1.3297939300537109e-01</leafValues></_>
        <_>
          <internalNodes>
            0 -1 76 -9.8914769478142262e-04</internalNodes>
          <leafValues>
            4.9678394198417664e-01 -1.6767492890357971e-01</leafValues></_></weakClassifiers></_>
    <!-- stage 6 -->
    <_>
      <maxWeakCount>19</maxWeakCount>
      <stageThreshold>-6.9308942556381226e-01</stageThreshold>
      <weakClassifiers>
        <_>
          <internalNodes>
            0 -1 64 -1.2278695404529572e-01</internalNodes>
          <leafValues>
            6.7874395847320557e-01 -9.6916303038597107e-02</leafValues></_>
        <_>
          <internalNodes>
            0 -1 37 9.0138778090476990e-02</internalNodes>
          <leafValues>
            -3.5785666108131409e-01 3.6710739135742188e-01</leafValues></_>
        <_>
          <internalNodes>
            0 -1 288 2.9221281409263611e-02</internalNodes>
          <leafValues>
            -2.1905390918254852e-01 4.9614155292510986e-01</leafValues></_>
        <_>
          <internalNodes>
            0 -1 210 -2.4313825997523963e-04</internalNodes>
          <leafValues>
            -4.0760925412178040e-01 2.2101511061191559e-01</leafValues></_>
        <_>
          <internalNodes>
            0 -1 193 4.4478317722678185e-03</internalNodes>
          <leafValues>
            9.7192473709583282e-02 -8.4524440765380859e-01</leafValues></_>
        <_>
          <internalNodes>
            0 -1 247 1.8583301454782486e-02</internalNodes>
          <leafValues>
            -1.9063852727413177e-01 5.8028709888458252e-01</leafValues></_>
        <_>
          <internalNodes>
            0 -1 221 3.8419044576585293e-03</internalNodes>
          <leafValues>
            1.1512149870395660e-01 -8.6662739515304565e-01</leafValues></_>
        <_>
          <internalNodes>
            0 -1 43 -1.5481480397284031e-02</internalNodes>
          <leafValues>
            4.2348229885101318e-01 -1.8938049674034119e-01</leafValues></_>
        <_>
          <internalNodes>
            0 -1 314 6.7760022357106209e-03</internalNodes>
          <leafValues>
            -1.4210157096385956e-01 5.6963306665420532e-01</leafValues></_>
        <_>
          <internalNodes>
            0 -1 300 -8.0444701015949249e-03</internalNodes>
          <leafValues>
            4.5968827605247498e-01 -1.6636680066585541e-01</leafValues></_>
        <_>
          <internalNodes>
            0 -1 313 8.3233835175633430e-04</internalNodes>
          <leafValues>
            -1.3804012537002563e-01 5.4653882980346680e-01</leafValues></_>
        <_>
          <internalNodes>
            0 -1 28 -3.4157402813434601e-02</internalNodes>
          <leafValues>
            5.3028738498687744e-01 -1.3867367804050446e-01</leafValues></_>
        <_>
          <internalNodes>
            0 -1 185 -2.0364827942103148e-03</internalNodes>
          <leafValues>
            4.3909022212028503e-01 -1.5855135023593903e-01</leafValues></_>
        <_>
          <internalNodes>
            0 -1 205 -1.4416003832593560e-03</internalNodes>
          <leafValues>
            4.0116590261459351e-01 -1.6856394708156586e-01</leafValues></_>
        <_>
          <internalNodes>
            0 -1 250 -6.2326120678335428e-04</internalNodes>
          <leafValues>
            3.3663880825042725e-01 -1.9562052190303802e-01</leafValues></_>
        <_>
          <internalNodes>
            0 -1 38 4.6332781203091145e-03</internalNodes>
          <leafValues>
            -1.7082275450229645e-01 3.6027079820632935e-01</leafValues></_>
        <_>
          <internalNodes>
            0 -1 296 -5.5050393566489220e-03</internalNodes>
          <leafValues>
            2.7862983942031860e-01 -2.4124723672866821e-01</leafValues></_>
        <_>
          <internalNodes>
            0 -1 143 7.2969938628375530e-04</internalNodes>
          <leafValues>
            -1.6160501539707184e-01 4.5640930533409119e-01</leafValues></_>
        <_>
          <internalNodes>
            0 -1 240 1.4511547051370144e-03</internalNodes>
          <leafValues>
            1.1096537858247757e-01 -6.3293260335922241e-01</leafValues></_></weakClassifiers></_>
    <!-- stage 7 -->
    <_>
      <maxWeakCount>21</maxWeakCount>
      <stageThreshold>-8.6570727825164795e-01</stageThreshold>
      <weakClassifiers>
        <_>
          <internalNodes>
            0 -1 19 9.5182038843631744e-02</internalNodes>
          <leafValues>
            7.2196617722511292e-02 7.4643421173095703e-01</leafValues></_>
        <_>
          <internalNodes>
            0 -1 244 -3.7000462412834167e-02</internalNodes>
          <leafValues>
            4.5114362239837646e-01 -2.3224875330924988e-01</leafValues></_>
        <_>
          <internalNodes>
            0 -1 151 2.2645782679319382e-02</internalNodes>
          <leafValues>
            1.5291802585124969e-01 -5.9139358997344971e-01</leafValues></_>
        <_>
          <internalNodes>
            0 -1 41 -4.4671734794974327e-03</internalNodes>
          <leafValues>
            4.3688046932220459e-01 -2.0781929790973663e-01</leafValues></_>
        <_>
          <internalNodes>
            0 -1 306 2.7942094020545483e-03</internalNodes>
          <leafValues>
            -3.1565585732460022e-01 2.6949265599250793e-01</leafValues></_>
        <_>
          <internalNodes>
            0 -1 129 -9.7500281408429146e-03</internalNodes>
          <leafValues>
            6.7547190189361572e-01 -1.2541632354259491e-01</leafValues></_>
        <_>
          <internalNodes>
            0 -1 67 -4.7538656741380692e-02</internalNodes>
          <leafValues>
            -6.7404264211654663e-01 1.3845063745975494e-01</leafValues></_>
        <_>
          <internalNodes>
            0 -1 167 1.1173142120242119e-02</internalNodes>
          <leafValues>
            -2.9293131828308105e-01 2.6101309061050415e-01</leafValues></_>
        <_>
          <internalNodes>
            0 -1 86 3.0882056802511215e-02</internalNodes>
          <leafValues>
            -1.4487819373607635e-01 5.5813270807266235e-01</leafValues></_>
        <_>
          <internalNodes>
            0 -1 135 6.0841972008347511e-03</internalNodes>
          <leafValues>
            -2.7774971723556519e-01 2.8896632790565491e-01</leafValues></_>
        <_>
          <internalNodes>
            0 -1 164 -1.9964389503002167e-02</internalNodes>
          <leafValues>
            6.1387199163436890e-01 -1.2530249357223511e-01</leafValues></_>
        <_>
          <internalNodes>
            0 -1 83 -2.2759009152650833e-02</internalNodes>
          <leafValues>
            4.5969590544700623e-01 -1.4117315411567688e-01</leafValues></_>
        <_>
          <internalNodes>
            0 -1 215 3.2491846941411495e-03</internalNodes>
          <leafValues>
            1.4493876695632935e-01 -5.8862257003784180e-01</leafValues></_>
        <_>
          <internalNodes>
            0 -1 322 -9.7999786958098412e-03</internalNodes>
          <leafValues>
            4.5308950543403625e-01 -1.6584153473377228e-01</leafValues></_>
        <_>
          <internalNodes>
            0 -1 276 6.4725410193204880e-03</internalNodes>
          <leafValues>
            -1.4814259111881256e-01 4.9149611592292786e-01</leafValues></_>
        <_>
          <internalNodes>
            0 -1 290 -2.0799236372113228e-03</internalNodes>
          <leafValues>
            4.4848346710205078e-01 -2.4572734534740448e-01</leafValues></_>
        <_>
          <internalNodes>
            0 -1 123 8.1687141209840775e-03</internalNodes>
          <leafValues>
            1.0949297994375229e-01 -7.3687201738357544e-01</leafValues></_>
        <_>
          <internalNodes>
            0 -1 145 1.1924689169973135e-03</internalNodes>
          <leafValues>
            -2.2045277059078217e-01 3.3480411767959595e-01</leafValues></_>
        <_>
          <internalNodes>
            0 -1 232 -9.9808652885258198e-04</internalNodes>
          <leafValues>
            4.7395223379135132e-01 -1.4441344141960144e-01</leafValues></_>
        <_>
          <internalNodes>
            0 -1 171 5.0345072522759438e-03</internalNodes>
          <leafValues>
            1.0883737355470657e-01 -6.5912276506423950e-01</leafValues></_>
        <_>
          <internalNodes>
            0 -1 270 2.1748494356870651e-02</internalNodes>
          <leafValues>
            7.4550651013851166e-02 -7.9290521144866943e-01</leafValues></_></weakClassifiers></_>
    <!-- stage 8 -->
    <_>
      <maxWeakCount>24</maxWeakCount>
      <stageThreshold>-8.1951504945755005e-01</stageThreshold>
      <weakClassifiers>
        <_>
          <internalNodes>
            0 -1 115 3.4762199968099594e-02</internalNodes>
          <leafValues>
            -3.5490605980157852e-02 6.6625154018402100e-01</leafValues></_>
        <_>
          <internalNodes>
            0 -1 108 2.3800451308488846e-02</internalNodes>
          <leafValues>
            -2.8925246000289917e-01 3.6550101637840271e-01</leafValues></_>
        <_>
          <internalNodes>
            0 -1 309 -6.9750165566802025e-03</internalNodes>
          <leafValues>
            3.2561218738555908e-01 -2.2247555851936340e-01</leafValues></_>
        <_>
          <internalNodes>
            0 -1 23 4.2029067873954773e-02</internalNodes>
          <leafValues>
            -2.1474295854568481e-01 3.2490342855453491e-01</leafValues></_>
        <_>
          <internalNodes>
            0 -1 104 -1.3701004907488823e-02</internalNodes>
          <leafValues>
            4.7876331210136414e-01 -1.3198651373386383e-01</leafValues></_>
        <_>
          <internalNodes>
            0 -1 155 6.6652866080403328e-03</internalNodes>
          <leafValues>
            9.9361024796962738e-02 -6.3473343849182129e-01</leafValues></_>
        <_>
          <internalNodes>
            0 -1 255 -8.6815340910106897e-04</internalNodes>
          <leafValues>
            -5.0043118000030518e-01 1.1805585771799088e-01</leafValues></_>
        <_>
          <internalNodes>
            0 -1 125 1.0318076238036156e-03</internalNodes>
          <leafValues>
            -2.2206777334213257e-01 2.8009742498397827e-01</leafValues></_>
        <_>
          <internalNodes>
            0 -1 13 -1.8670560792088509e-02</internalNodes>
          <leafValues>
            6.3408792018890381e-01 -1.2572042644023895e-01</leafValues></_>
        <_>
          <internalNodes>
            0 -1 319 -5.9279259294271469e-03</internalNodes>
          <leafValues>
            4.2337676882743835e-01 -1.5439675748348236e-01</leafValues></_>
        <_>
          <internalNodes>
            0 -1 223 1.8998916493728757e-04</internalNodes>
          <leafValues>
            -2.3009237647056580e-01 2.9143762588500977e-01</leafValues></_>
        <_>
          <internalNodes>
            0 -1 177 7.7724517323076725e-03</internalNodes>
          <leafValues>
            -1.5944047272205353e-01 4.5515069365501404e-01</leafValues></_>
        <_>
          <internalNodes>
            0 -1 318 -1.5621942002326250e-03</internalNodes>
          <leafValues>
            2.8941130638122559e-01 -2.1835157275199890e-01</leafValues></_>
        <_>
          <internalNodes>
            0 -1 183 1.2015399336814880e-01</internalNodes>
          <leafValues>
            -1.2494532763957977e-01 4.6774980425834656e-01</leafValues></_>
        <_>
          <internalNodes>
            0 -1 252 -8.5726883262395859e-03</internalNodes>
          <leafValues>
            3.8104096055030823e-01 -1.9611778855323792e-01</leafValues></_>
        <_>
          <internalNodes>
            0 -1 278 1.8131303368136287e-03</internalNodes>
          <leafValues>
            -1.3505983352661133e-01 4.8013690114021301e-01</leafValues></_>
        <_>
          <internalNodes>
            0 -1 209 1.2095372192561626e-02</internalNodes>
          <leafValues>
            8.8702835142612457e-02 -8.0776226520538330e-01</leafValues></_>
        <_>
          <internalNodes>
            0 -1 138 4.2672567069530487e-03</internalNodes>
          <leafValues>
            1.1876625567674637e-01 -4.6058106422424316e-01</leafValues></_>
        <_>
          <internalNodes>
            0 -1 121 5.2842404693365097e-04</internalNodes>
          <leafValues>
            -3.4207811951637268e-01 1.9246052205562592e-01</leafValues></_>
        <_>
          <internalNodes>
            0 -1 54 4.6671825111843646e-04</internalNodes>
          <leafValues>
            -2.0804192125797272e-01 3.3062285184860229e-01</leafValues></_>
        <_>
          <internalNodes>
            0 -1 51 1.9809664785861969e-01</internalNodes>
          <leafValues>
            8.5208758711814880e-02 -8.4887528419494629e-01</leafValues></_>
        <_>
          <internalNodes>
            0 -1 282 -1.0054211132228374e-02</internalNodes>
          <leafValues>
            -5.9509956836700439e-01 9.2738896608352661e-02</leafValues></_>
        <_>
          <internalNodes>
            0 -1 266 1.3425797224044800e-02</internalNodes>
          <leafValues>
            -1.6444808244705200e-01 3.9539724588394165e-01</leafValues></_>
        <_>
          <internalNodes>
            0 -1 274 3.9671752601861954e-03</internalNodes>
          <leafValues>
            1.4557963609695435e-01 -4.9739959836006165e-01</leafValues></_></weakClassifiers></_>
    <!-- stage 9 -->
    <_>
      <maxWeakCount>21</maxWeakCount>
      <stageThreshold>-6.7655003070831299e-01</stageThreshold>
      <weakClassifiers>
        <_>
          <internalNodes>
            0 -1 63 9.8597882315516472e-03</internalNodes>
          <leafValues>
            -2.4509804323315620e-02 6.0411900281906128e-01</leafValues></_>
        <_>
          <internalNodes>
            0 -1 275 -2.5129614397883415e-02</internalNodes>
          <leafValues>
            3.8249960541725159e-01 -2.6418891549110413e-01</leafValues></_>
        <_>
          <internalNodes>
            0 -1 222 1.1792175471782684e-02</internalNodes>
          <leafValues>
            -1.8685491383075714e-01 4.3134850263595581e-01</leafValues></_>
        <_>
          <internalNodes>
            0 -1 62 1.2781826779246330e-02</internalNodes>
          <leafValues>
            -3.7642794847488403e-01 2.2603209316730499e-01</leafValues></_>
        <_>
          <internalNodes>
            0 -1 227 4.0213814936578274e-03</internalNodes>
          <leafValues>
            -1.5575319528579712e-01 7.2069001197814941e-01</leafValues></_>
        <_>
          <internalNodes>
            0 -1 229 1.4201858080923557e-02</internalNodes>
          <leafValues>
            -9.6405245363712311e-02 5.2672690153121948e-01</leafValues></_>
        <_>
          <internalNodes>
            0 -1 308 -2.4333638139069080e-03</internalNodes>
          <leafValues>
            2.6608517765998840e-01 -2.5271639227867126e-01</leafValues></_>
        <_>
          <internalNodes>
            0 -1 321 5.9964889660477638e-03</internalNodes>
          <leafValues>
            -1.3193874061107635e-01 5.3336077928543091e-01</leafValues></_>
        <_>
          <internalNodes>
            0 -1 16 2.5006089359521866e-02</internalNodes>
          <leafValues>
            -1.4819289743900299e-01 4.7271001338958740e-01</leafValues></_>
        <_>
          <internalNodes>
            0 -1 153 -7.3319580405950546e-03</internalNodes>
          <leafValues>
            -4.6910542249679565e-01 1.6564391553401947e-01</leafValues></_>
        <_>
          <internalNodes>
            0 -1 235 -6.7871087230741978e-04</internalNodes>
          <leafValues>
            3.7411928176879883e-01 -1.7775684595108032e-01</leafValues></_>
        <_>
          <internalNodes>
            0 -1 224 -3.8221622817218304e-03</internalNodes>
          <leafValues>
            -7.4858826398849487e-01 1.1345884948968887e-01</leafValues></_>
        <_>
          <internalNodes>
            0 -1 184 1.3800673186779022e-03</internalNodes>
          <leafValues>
            -1.7911528050899506e-01 4.0906763076782227e-01</leafValues></_>
        <_>
          <internalNodes>
            0 -1 82 -8.7321978062391281e-03</internalNodes>
          <leafValues>
            3.3074402809143066e-01 -1.8231801688671112e-01</leafValues></_>
        <_>
          <internalNodes>
            0 -1 100 8.4131853654980659e-03</internalNodes>
          <leafValues>
            -2.5031211972236633e-01 3.1276682019233704e-01</leafValues></_>
        <_>
          <internalNodes>
            0 -1 58 -1.4398522675037384e-02</internalNodes>
          <leafValues>
            4.9715933203697205e-01 -1.3992363214492798e-01</leafValues></_>
        <_>
          <internalNodes>
            0 -1 52 1.1123710870742798e-01</internalNodes>
          <leafValues>
            1.1902022361755371e-01 -5.8379840850830078e-01</leafValues></_>
        <_>
          <internalNodes>
            0 -1 79 1.6556435730308294e-03</internalNodes>
          <leafValues>
            -3.4195089340209961e-01 1.9615201652050018e-01</leafValues></_>
        <_>
          <internalNodes>
            0 -1 102 -9.0414583683013916e-03</internalNodes>
          <leafValues>
            5.7848161458969116e-01 -1.1218249797821045e-01</leafValues></_>
        <_>
          <internalNodes>
            0 -1 297 -4.2502749711275101e-03</internalNodes>
          <leafValues>
            5.6385153532028198e-01 -1.0468942672014236e-01</leafValues></_>
        <_>
          <internalNodes>
            0 -1 200 1.4548362232744694e-03</internalNodes>
          <leafValues>
            -1.1900363862514496e-01 4.8891460895538330e-01</leafValues></_></weakClassifiers></_>
    <!-- stage 10 -->
    <_>
      <maxWeakCount>25</maxWeakCount>
      <stageThreshold>-5.9205871820449829e-01</stageThreshold>
      <weakClassifiers>
        <_>
          <internalNodes>
            0 -1 106 -1.0151895880699158e-01</internalNodes>
          <leafValues>
            6.9863015413284302e-01 9.4400003552436829e-02</leafValues></_>
        <_>
          <internalNodes>
            0 -1 46 7.1286773309111595e-03</internalNodes>
          <leafValues>
            -1.4235539734363556e-01 5.3662526607513428e-01</leafValues></_>
        <_>
          <internalNodes>
            0 -1 298 -1.7248000949621201e-03</internalNodes>
          <leafValues>
            2.5282502174377441e-01 -2.9659301042556763e-01</leafValues></_>
        <_>
          <internalNodes>
            0 -1 182 1.5836024284362793e-01</internalNodes>
          <leafValues>
            -2.1434630453586578e-01 3.4977963566780090e-01</leafValues></_>
        <_>
          <internalNodes>
            0 -1 124 2.9140075203031301e-03</internalNodes>
          <leafValues>
            -1.8846820294857025e-01 3.0359533429145813e-01</leafValues></_>
        <_>
          <internalNodes>
            0 -1 262 -3.8432204746641219e-04</internalNodes>
          <leafValues>
            -4.1620513796806335e-01 1.2784621119499207e-01</leafValues></_>
        <_>
          <internalNodes>
            0 -1 304 -6.0976827517151833e-03</internalNodes>
          <leafValues>
            5.4881721735000610e-01 -1.1181432753801346e-01</leafValues></_>
        <_>
          <internalNodes>
            0 -1 294 1.4837840571999550e-02</internalNodes>
          <leafValues>
            -1.1681354790925980e-01 4.6297466754913330e-01</leafValues></_>
        <_>
          <internalNodes>
            0 -1 130 5.8704726397991180e-02</internalNodes>
          <leafValues>
            -7.5760200619697571e-02 6.6828370094299316e-01</leafValues></_>
        <_>
          <internalNodes>
            0 -1 110 -3.8481606170535088e-03</internalNodes>
          <leafValues>
            5.5515390634536743e-01 -1.0452161729335785e-01</leafValues></_>
        <_>
          <internalNodes>
            0 -1 105 -8.4105401765555143e-04</internalNodes>
          <leafValues>
            2.1209569275379181e-01 -2.6009598374366760e-01</leafValues></_>
        <_>
          <internalNodes>
            0 -1 251 -4.2038853280246258e-04</internalNodes>
          <leafValues>
            2.6229077577590942e-01 -2.0765852928161621e-01</leafValues></_>
        <_>
          <internalNodes>
            0 -1 68 -1.4001289382576942e-02</internalNodes>
          <leafValues>
            -8.2339555025100708e-01 7.6093688607215881e-02</leafValues></_>
        <_>
          <internalNodes>
            0 -1 238 -2.8347701299935579e-04</internalNodes>
          <leafValues>
            -3.4576508402824402e-01 1.4965105056762695e-01</leafValues></_>
        <_>
          <internalNodes>
            0 -1 84 2.3370373994112015e-02</internalNodes>
          <leafValues>
            -7.8983634710311890e-02 7.0917856693267822e-01</leafValues></_>
        <_>
          <internalNodes>
            0 -1 142 -2.3572986945509911e-02</internalNodes>
          <leafValues>
            5.8879256248474121e-01 -9.0063869953155518e-02</leafValues></_>
        <_>
          <internalNodes>
            0 -1 77 3.6259293556213379e-02</internalNodes>
          <leafValues>
            -2.5670939683914185e-01 2.6875805854797363e-01</leafValues></_>
        <_>
          <internalNodes>
            0 -1 92 1.0215009748935699e-01</internalNodes>
          <leafValues>
            1.1479956656694412e-01 -5.8220481872558594e-01</leafValues></_>
        <_>
          <internalNodes>
            0 -1 190 -2.3690928355790675e-04</internalNodes>
          <leafValues>
            -4.0447577834129333e-01 1.4130374789237976e-01</leafValues></_>
        <_>
          <internalNodes>
            0 -1 199 2.0740568637847900e-02</internalNodes>
          <leafValues>
            -1.5517203509807587e-01 4.1837561130523682e-01</leafValues></_>
        <_>
          <internalNodes>
            0 -1 307 -3.1601635273545980e-03</internalNodes>
          <leafValues>
            -5.8891713619232178e-01 9.0301282703876495e-02</leafValues></_>
        <_>
          <internalNodes>
            0 -1 25 -1.9428864470683038e-04</internalNodes>
          <leafValues>
            2.4056434631347656e-01 -2.1959789097309113e-01</leafValues></_>
        <_>
          <internalNodes>
            0 -1 91 -3.0164889991283417e-02</internalNodes>
          <leafValues>
            3.3905926346778870e-01 -1.5274040400981903e-01</leafValues></_>
        <_>
          <internalNodes>
            0 -1 6 4.4821631163358688e-03</internalNodes>
          <leafValues>
            -1.8559186160564423e-01 3.2012540102005005e-01</leafValues></_>
        <_>
          <internalNodes>
            0 -1 9 -6.4752856269478798e-03</internalNodes>
          <leafValues>
            4.1171017289161682e-01 -1.8381528556346893e-01</leafValues></_></weakClassifiers></_>
    <!-- stage 11 -->
    <_>
      <maxWeakCount>23</maxWeakCount>
      <stageThreshold>-6.0041308403015137e-01</stageThreshold>
      <weakClassifiers>
        <_>
          <internalNodes>
            0 -1 139 1.0188580490648746e-03</internalNodes>
          <leafValues>
            -1.9323671236634254e-02 6.0599076747894287e-01</leafValues></_>
        <_>
          <internalNodes>
            0 -1 211 -2.8433628380298615e-02</internalNodes>
          <leafValues>
            2.4591389298439026e-01 -4.3713945150375366e-01</leafValues></_>
        <_>
          <internalNodes>
            0 -1 65 7.3704584501683712e-03</internalNodes>
          <leafValues>
            -2.8477451205253601e-01 2.7425268292427063e-01</leafValues></_>
        <_>
          <internalNodes>
            0 -1 258 -1.8811829388141632e-02</internalNodes>
          <leafValues>
            -5.7752907276153564e-01 1.2561546266078949e-01</leafValues></_>
        <_>
          <internalNodes>
            0 -1 230 2.0488913357257843e-01</internalNodes>
          <leafValues>
            -1.8127794563770294e-01 4.4970548152923584e-01</leafValues></_>
        <_>
          <internalNodes>
            0 -1 305 1.1041497811675072e-02</internalNodes>
          <leafValues>
            -1.2977807223796844e-01 6.4796489477157593e-01</leafValues></_>
        <_>
          <internalNodes>
            0 -1 188 -6.5089412964880466e-04</internalNodes>
          <leafValues>
            -3.7945163249969482e-01 1.9983281195163727e-01</leafValues></_>
        <_>
          <internalNodes>
            0 -1 88 6.6277630627155304e-02</internalNodes>
          <leafValues>
            -1.2871009111404419e-01 6.1828386783599854e-01</leafValues></_>
        <_>
          <internalNodes>
            0 -1 295 -2.0468805450946093e-03</internalNodes>
          <leafValues>
            3.2075616717338562e-01 -1.8685781955718994e-01</leafValues></_>
        <_>
          <internalNodes>
            0 -1 301 -5.8807348832488060e-03</internalNodes>
          <leafValues>
            4.3571081757545471e-01 -1.6517668962478638e-01</leafValues></_>
        <_>
          <internalNodes>
            0 -1 189 1.0998535901308060e-02</internalNodes>
          <leafValues>
            1.0049668699502945e-01 -7.4842780828475952e-01</leafValues></_>
        <_>
          <internalNodes>
            0 -1 35 3.8552410900592804e-02</internalNodes>
          <leafValues>
            -1.0622537881135941e-01 6.2629091739654541e-01</leafValues></_>
        <_>
          <internalNodes>
            0 -1 39 -8.0033950507640839e-04</internalNodes>
          <leafValues>
            2.9740089178085327e-01 -1.7331916093826294e-01</leafValues></_>
        <_>
          <internalNodes>
            0 -1 127 2.6354582514613867e-03</internalNodes>
          <leafValues>
            -1.4625799655914307e-01 3.3325397968292236e-01</leafValues></_>
        <_>
          <internalNodes>
            0 -1 50 -6.3928556628525257e-03</internalNodes>
          <leafValues>
            5.9481668472290039e-01 -9.3464985489845276e-02</leafValues></_>
        <_>
          <internalNodes>
            0 -1 85 -1.4479669928550720e-01</internalNodes>
          <leafValues>
            3.9333382248878479e-01 -1.4261986315250397e-01</leafValues></_>
        <_>
          <internalNodes>
            0 -1 261 -1.8088961951434612e-04</internalNodes>
          <leafValues>
            1.6721901297569275e-01 -3.5060897469520569e-01</leafValues></_>
        <_>
          <internalNodes>
            0 -1 95 -5.2490981761366129e-04</internalNodes>
          <leafValues>
            3.2408294081687927e-01 -1.7783884704113007e-01</leafValues></_>
        <_>
          <internalNodes>
            0 -1 299 -6.4817297970876098e-04</internalNodes>
          <leafValues>
            4.1688352823257446e-01 -1.3741062581539154e-01</leafValues></_>
        <_>
          <internalNodes>
            0 -1 117 4.7175586223602295e-03</internalNodes>
          <leafValues>
            -2.5583553314208984e-01 2.3325625061988831e-01</leafValues></_>
        <_>
          <internalNodes>
            0 -1 259 1.3501276262104511e-02</internalNodes>
          <leafValues>
            7.7401190996170044e-02 -8.0392789840698242e-01</leafValues></_>
        <_>
          <internalNodes>
            0 -1 81 -1.2353677302598953e-03</internalNodes>
          <leafValues>
            2.0831313729286194e-01 -3.1414207816123962e-01</leafValues></_>
        <_>
          <internalNodes>
            0 -1 245 5.0019295886158943e-03</internalNodes>
          <leafValues>
            6.5353840589523315e-02 -7.8356677293777466e-01</leafValues></_></weakClassifiers></_>
    <!-- stage 12 -->
    <_>
      <maxWeakCount>26</maxWeakCount>
      <stageThreshold>-5.2159285545349121e-01</stageThreshold>
      <weakClassifiers>
        <_>
          <internalNodes>
            0 -1 11 4.3375313282012939e-02</internalNodes>
          <leafValues>
            -8.6505189538002014e-02 5.4682779312133789e-01</leafValues></_>
        <_>
          <internalNodes>
            0 -1 243 -3.9336618036031723e-02</internalNodes>
          <leafValues>
            3.7967708706855774e-01 -2.0592693984508514e-01</leafValues></_>
        <_>
          <internalNodes>
            0 -1 140 1.1173804523423314e-03</internalNodes>
          <leafValues>
            -2.1653401851654053e-01 3.0068093538284302e-01</leafValues></_>
        <_>
          <internalNodes>
            0 -1 289 6.9644139148294926e-03</internalNodes>
          <leafValues>
            -1.6044567525386810e-01 3.7058249115943909e-01</leafValues></_>
        <_>
          <internalNodes>
            0 -1 174 3.1400620937347412e-03</internalNodes>
          <leafValues>
            8.1302419304847717e-02 -6.6130000352859497e-01</leafValues></_>
        <_>
          <internalNodes>
            0 -1 206 3.0186253134161234e-03</internalNodes>
          <leafValues>
            -1.6478577256202698e-01 4.0693151950836182e-01</leafValues></_>
        <_>
          <internalNodes>
            0 -1 132 8.7873023003339767e-03</internalNodes>
          <leafValues>
            -2.4015417695045471e-01 3.7671890854835510e-01</leafValues></_>
        <_>
          <internalNodes>
            0 -1 204 1.6961641609668732e-02</internalNodes>
          <leafValues>
            -7.4065662920475006e-02 7.4814242124557495e-01</leafValues></_>
        <_>
          <internalNodes>
            0 -1 80 5.5240215733647346e-03</internalNodes>
          <leafValues>
            -1.8269409239292145e-01 3.2504689693450928e-01</leafValues></_>
        <_>
          <internalNodes>
            0 -1 325 2.3700918536633253e-03</internalNodes>
          <leafValues>
            -1.4557068049907684e-01 4.4670304656028748e-01</leafValues></_>
        <_>
          <internalNodes>
            0 -1 310 -1.6624907730147243e-03</internalNodes>
          <leafValues>
            4.2353919148445129e-01 -1.3074545562267303e-01</leafValues></_>
        <_>
          <internalNodes>
            0 -1 168 2.5486476719379425e-02</internalNodes>
          <leafValues>
            8.2651950418949127e-02 -8.0928492546081543e-01</leafValues></_>
        <_>
          <internalNodes>
            0 -1 195 -1.1122543364763260e-02</internalNodes>
          <leafValues>
            2.9026657342910767e-01 -1.9972418248653412e-01</leafValues></_>
        <_>
          <internalNodes>
            0 -1 89 -1.2173360586166382e-01</internalNodes>
          <leafValues>
            9.3681412935256958e-01 -6.7545145750045776e-02</leafValues></_>
        <_>
          <internalNodes>
            0 -1 166 2.9940500855445862e-02</internalNodes>
          <leafValues>
            -1.6733764111995697e-01 3.9242690801620483e-01</leafValues></_>
        <_>
          <internalNodes>
            0 -1 237 -2.1447064355015755e-02</internalNodes>
          <leafValues>
            -5.4713153839111328e-01 1.2779919803142548e-01</leafValues></_>
        <_>
          <internalNodes>
            0 -1 44 6.9428486749529839e-03</internalNodes>
          <leafValues>
            -3.7430730462074280e-01 1.8604931235313416e-01</leafValues></_>
        <_>
          <internalNodes>
            0 -1 303 2.3515015840530396e-02</internalNodes>
          <leafValues>
            -1.3873431086540222e-01 4.7362375259399414e-01</leafValues></_>
        <_>
          <internalNodes>
            0 -1 186 8.4575889632105827e-03</internalNodes>
          <leafValues>
            -1.0810264945030212e-01 5.1292055845260620e-01</leafValues></_>
        <_>
          <internalNodes>
            0 -1 323 4.8555182293057442e-03</internalNodes>
          <leafValues>
            -1.0456562787294388e-01 5.2125835418701172e-01</leafValues></_>
        <_>
          <internalNodes>
            0 -1 284 3.4108266234397888e-02</internalNodes>
          <leafValues>
            -1.2724487483501434e-01 4.1247674822807312e-01</leafValues></_>
        <_>
          <internalNodes>
            0 -1 147 -3.1822735909372568e-03</internalNodes>
          <leafValues>
            4.4752836227416992e-01 -1.3324795663356781e-01</leafValues></_>
        <_>
          <internalNodes>
            0 -1 101 1.1715961154550314e-03</internalNodes>
          <leafValues>
            -1.1217446625232697e-01 4.3051734566688538e-01</leafValues></_>
        <_>
          <internalNodes>
            0 -1 181 -8.4741953760385513e-03</internalNodes>
          <leafValues>
            3.6756515502929688e-01 -1.5200339257717133e-01</leafValues></_>
        <_>
          <internalNodes>
            0 -1 276 5.8309049345552921e-03</internalNodes>
          <leafValues>
            -1.4182831346988678e-01 4.2958927154541016e-01</leafValues></_>
        <_>
          <internalNodes>
            0 -1 175 -8.1502795219421387e-03</internalNodes>
          <leafValues>
            5.2253156900405884e-01 -9.9571064114570618e-02</leafValues></_></weakClassifiers></_>
    <!-- stage 13 -->
    <_>
      <maxWeakCount>25</maxWeakCount>
      <stageThreshold>-6.7373549938201904e-01</stageThreshold>
      <weakClassifiers>
        <_>
          <internalNodes>
            0 -1 179 2.8201639652252197e-02</internalNodes>
          <leafValues>
            1.4534883201122284e-01 7.0370370149612427e-01</leafValues></_>
        <_>
          <internalNodes>
            0 -1 231 1.7598739266395569e-01</internalNodes>
          <leafValues>
            -2.0031307637691498e-01 4.5423460006713867e-01</leafValues></_>
        <_>
          <internalNodes>
            0 -1 42 8.1223659217357635e-03</internalNodes>
          <leafValues>
            -2.1472461521625519e-01 4.3087413907051086e-01</leafValues></_>
        <_>
          <internalNodes>
            0 -1 59 -9.9474966526031494e-02</internalNodes>
          <leafValues>
            -5.2354156970977783e-01 9.3769498169422150e-02</leafValues></_>
        <_>
          <internalNodes>
            0 -1 277 2.5282718241214752e-02</internalNodes>
          <leafValues>
            -1.2096872180700302e-01 4.9752226471900940e-01</leafValues></_>
        <_>
          <internalNodes>
            0 -1 226 1.3786710798740387e-02</internalNodes>
          <leafValues>
            -1.5018063783645630e-01 3.9514812827110291e-01</leafValues></_>
        <_>
          <internalNodes>
            0 -1 207 -1.0200109332799911e-02</internalNodes>
          <leafValues>
            -6.2925511598587036e-01 9.4347782433032990e-02</leafValues></_>
        <_>
          <internalNodes>
            0 -1 304 -5.8871395885944366e-03</internalNodes>
          <leafValues>
            5.1642543077468872e-01 -1.2654592096805573e-01</leafValues></_>
        <_>
          <internalNodes>
            0 -1 55 1.5739176422357559e-02</internalNodes>
          <leafValues>
            -1.4633871614933014e-01 3.5546877980232239e-01</leafValues></_>
        <_>
          <internalNodes>
            0 -1 141 3.0350661836564541e-03</internalNodes>
          <leafValues>
            -1.4074799418449402e-01 5.2317684888839722e-01</leafValues></_>
        <_>
          <internalNodes>
            0 -1 285 4.6598818153142929e-03</internalNodes>
          <leafValues>
            -1.7276446521282196e-01 3.2330831885337830e-01</leafValues></_>
        <_>
          <internalNodes>
            0 -1 128 1.0898998379707336e-01</internalNodes>
          <leafValues>
            -6.5963849425315857e-02 8.0804908275604248e-01</leafValues></_>
        <_>
          <internalNodes>
            0 -1 5 8.0345116555690765e-02</internalNodes>
          <leafValues>
            -2.7432081103324890e-01 2.0662981271743774e-01</leafValues></_>
        <_>
          <internalNodes>
            0 -1 15 -2.5806665420532227e-02</internalNodes>
          <leafValues>
            7.1198838949203491e-01 -9.4253085553646088e-02</leafValues></_>
        <_>
          <internalNodes>
            0 -1 148 1.6071472316980362e-02</internalNodes>
          <leafValues>
            9.1865912079811096e-02 -8.3557492494583130e-01</leafValues></_>
        <_>
          <internalNodes>
            0 -1 118 9.5139257609844208e-03</internalNodes>
          <leafValues>
            1.1111100763082504e-01 -5.1211893558502197e-01</leafValues></_>
        <_>
          <internalNodes>
            0 -1 194 -1.0126510169357061e-03</internalNodes>
          <leafValues>
            2.1834266185760498e-01 -2.6308733224868774e-01</leafValues></_>
        <_>
          <internalNodes>
            0 -1 269 -4.2347181588411331e-03</internalNodes>
          <leafValues>
            -5.6003838777542114e-01 9.5266655087471008e-02</leafValues></_>
        <_>
          <internalNodes>
            0 -1 161 1.5311062335968018e-02</internalNodes>
          <leafValues>
            -9.7301386296749115e-02 6.2770324945449829e-01</leafValues></_>
        <_>
          <internalNodes>
            0 -1 32 -1.1989410221576691e-01</internalNodes>
          <leafValues>
            6.5551143884658813e-01 -8.8665783405303955e-02</leafValues></_>
        <_>
          <internalNodes>
            0 -1 115 5.7010054588317871e-02</internalNodes>
          <leafValues>
            -1.5858255326747894e-01 3.3040300011634827e-01</leafValues></_>
        <_>
          <internalNodes>
            0 -1 120 3.0773703008890152e-02</internalNodes>
          <leafValues>
            -3.6730360984802246e-01 1.7063260078430176e-01</leafValues></_>
        <_>
          <internalNodes>
            0 -1 144 1.2486096471548080e-02</internalNodes>
          <leafValues>
            -1.5218311548233032e-01 4.5186123251914978e-01</leafValues></_>
        <_>
          <internalNodes>
            0 -1 78 1.2234884779900312e-03</internalNodes>
          <leafValues>
            -2.0668420195579529e-01 2.6700079441070557e-01</leafValues></_>
        <_>
          <internalNodes>
            0 -1 233 1.9385227933526039e-03</internalNodes>
          <leafValues>
            -1.0942651331424713e-01 5.0157696008682251e-01</leafValues></_></weakClassifiers></_>
    <!-- stage 14 -->
    <_>
      <maxWeakCount>24</maxWeakCount>
      <stageThreshold>-4.9825143814086914e-01</stageThreshold>
      <weakClassifiers>
        <_>
          <internalNodes>
            0 -1 50 4.3321542441844940e-02</internalNodes>
          <leafValues>
            1.8383312225341797e-01 7.3203885555267334e-01</leafValues></_>
        <_>
          <internalNodes>
            0 -1 90 3.5669389367103577e-01</internalNodes>
          <leafValues>
            -8.5672877728939056e-02 6.7999053001403809e-01</leafValues></_>
        <_>
          <internalNodes>
            0 -1 219 6.7359604872763157e-03</internalNodes>
          <leafValues>
            -3.6789661645889282e-01 1.9716173410415649e-01</leafValues></_>
        <_>
          <internalNodes>
            0 -1 158 -5.7534165680408478e-02</internalNodes>
          <leafValues>
            4.8907229304313660e-01 -1.3720631599426270e-01</leafValues></_>
        <_>
          <internalNodes>
            0 -1 24 -6.9608025252819061e-02</internalNodes>
          <leafValues>
            -8.0632996559143066e-01 8.3850353956222534e-02</leafValues></_>
        <_>
          <internalNodes>
            0 -1 60 -3.7206131964921951e-03</internalNodes>
          <leafValues>
            5.0344789028167725e-01 -1.2829259037971497e-01</leafValues></_>
        <_>
          <internalNodes>
            0 -1 8 1.2040467932820320e-02</internalNodes>
          <leafValues>
            -2.3333753645420074e-01 2.6473948359489441e-01</leafValues></_>
        <_>
          <internalNodes>
            0 -1 198 -4.9331695772707462e-03</internalNodes>
          <leafValues>
            3.8344466686248779e-01 -1.5401546657085419e-01</leafValues></_>
        <_>
          <internalNodes>
            0 -1 131 -3.1477822922170162e-03</internalNodes>
          <leafValues>
            2.9561951756477356e-01 -1.9339996576309204e-01</leafValues></_>
        <_>
          <internalNodes>
            0 -1 249 5.6640129536390305e-02</internalNodes>
          <leafValues>
            -1.3645809888839722e-01 4.9647971987724304e-01</leafValues></_>
        <_>
          <internalNodes>
            0 -1 87 -5.4937228560447693e-02</internalNodes>
          <leafValues>
            8.6746466159820557e-01 -6.4198851585388184e-02</leafValues></_>
        <_>
          <internalNodes>
            0 -1 273 -1.9149045692756772e-04</internalNodes>
          <leafValues>
            -3.1434062123298645e-01 1.9353052973747253e-01</leafValues></_>
        <_>
          <internalNodes>
            0 -1 113 2.4363711476325989e-02</internalNodes>
          <leafValues>
            -1.6035862267017365e-01 3.7422320246696472e-01</leafValues></_>
        <_>
          <internalNodes>
            0 -1 10 -2.1580290049314499e-02</internalNodes>
          <leafValues>
            5.7386153936386108e-01 -1.0988376289606094e-01</leafValues></_>
        <_>
          <internalNodes>
            0 -1 134 1.3217508792877197e-02</internalNodes>
          <leafValues>
            7.9924382269382477e-02 -8.5331660509109497e-01</leafValues></_>
        <_>
          <internalNodes>
            0 -1 69 -1.2139832600951195e-02</internalNodes>
          <leafValues>
            6.1913418769836426e-01 -1.1226633191108704e-01</leafValues></_>
        <_>
          <internalNodes>
            0 -1 212 6.0670776292681694e-05</internalNodes>
          <leafValues>
            -2.5478762388229370e-01 2.2326792776584625e-01</leafValues></_>
        <_>
          <internalNodes>
            0 -1 53 -3.4155510365962982e-02</internalNodes>
          <leafValues>
            6.9883853197097778e-01 -7.5747951865196228e-02</leafValues></_>
        <_>
          <internalNodes>
            0 -1 111 -1.7444662749767303e-02</internalNodes>
          <leafValues>
            4.4725155830383301e-01 -1.2747104465961456e-01</leafValues></_>
        <_>
          <internalNodes>
            0 -1 316 1.2493042275309563e-02</internalNodes>
          <leafValues>
            9.0166546404361725e-02 -7.5493001937866211e-01</leafValues></_>
        <_>
          <internalNodes>
            0 -1 192 -6.0121184214949608e-03</internalNodes>
          <leafValues>
            -8.5605531930923462e-01 6.3965283334255219e-02</leafValues></_>
        <_>
          <internalNodes>
            0 -1 57 -6.4238556660711765e-03</internalNodes>
          <leafValues>
            4.7133114933967590e-01 -1.3736003637313843e-01</leafValues></_>
        <_>
          <internalNodes>
            0 -1 61 8.8232327252626419e-03</internalNodes>
          <leafValues>
            -1.8474580347537994e-01 3.1317883729934692e-01</leafValues></_>
        <_>
          <internalNodes>
            0 -1 17 -2.6834169402718544e-03</internalNodes>
          <leafValues>
            3.7276810407638550e-01 -1.7449811100959778e-01</leafValues></_></weakClassifiers></_>
    <!-- stage 15 -->
    <_>
      <maxWeakCount>29</maxWeakCount>
      <stageThreshold>-6.2668645381927490e-01</stageThreshold>
      <weakClassifiers>
        <_>
          <internalNodes>
            0 -1 272 -2.2912460844963789e-03</internalNodes>
          <leafValues>
            6.4705884456634521e-01 1.2956809997558594e-01</leafValues></_>
        <_>
          <internalNodes>
            0 -1 70 5.4637774825096130e-02</internalNodes>
          <leafValues>
            -2.0899130403995514e-01 3.6222052574157715e-01</leafValues></_>
        <_>
          <internalNodes>
            0 -1 56 3.1550770998001099e-01</internalNodes>
          <leafValues>
            -2.0185205340385437e-01 3.1493031978607178e-01</leafValues></_>
        <_>
          <internalNodes>
            0 -1 264 5.3713237866759300e-04</internalNodes>
          <leafValues>
            -2.2550004720687866e-01 3.0259937047958374e-01</leafValues></_>
        <_>
          <internalNodes>
            0 -1 248 3.2758351881057024e-03</internalNodes>
          <leafValues>
            -2.0609296858310699e-01 3.8633021712303162e-01</leafValues></_>
        <_>
          <internalNodes>
            0 -1 157 -8.5359299555420876e-03</internalNodes>
          <leafValues>
            4.8557469248771667e-01 -1.1579883843660355e-01</leafValues></_>
        <_>
          <internalNodes>
            0 -1 33 -3.7097677588462830e-02</internalNodes>
          <leafValues>
            6.3978582620620728e-01 -1.0337062180042267e-01</leafValues></_>
        <_>
          <internalNodes>
            0 -1 197 1.4969594776630402e-03</internalNodes>
          <leafValues>
            -2.0192739367485046e-01 3.1154814362525940e-01</leafValues></_>
        <_>
          <internalNodes>
            0 -1 268 -6.4121447503566742e-03</internalNodes>
          <leafValues>
            3.4826284646987915e-01 -1.8399104475975037e-01</leafValues></_>
        <_>
          <internalNodes>
            0 -1 150 1.9211797043681145e-02</internalNodes>
          <leafValues>
            1.2175388634204865e-01 -5.1228272914886475e-01</leafValues></_>
        <_>
          <internalNodes>
            0 -1 293 2.4266289547085762e-02</internalNodes>
          <leafValues>
            -1.3716101646423340e-01 5.0699663162231445e-01</leafValues></_>
        <_>
          <internalNodes>
            0 -1 312 -3.6839540116488934e-03</internalNodes>
          <leafValues>
            2.8995549678802490e-01 -2.3056443035602570e-01</leafValues></_>
        <_>
          <internalNodes>
            0 -1 133 7.7022872865200043e-03</internalNodes>
          <leafValues>
            -3.2848310470581055e-01 2.2516171634197235e-01</leafValues></_>
        <_>
          <internalNodes>
            0 -1 96 3.2292958348989487e-04</internalNodes>
          <leafValues>
            -2.0488429069519043e-01 2.8459519147872925e-01</leafValues></_>
        <_>
          <internalNodes>
            0 -1 3 3.3121787011623383e-02</internalNodes>
          <leafValues>
            -1.2949728965759277e-01 4.2513129115104675e-01</leafValues></_>
        <_>
          <internalNodes>
            0 -1 74 3.5224426537752151e-03</internalNodes>
          <leafValues>
            -1.6155430674552917e-01 3.5988768935203552e-01</leafValues></_>
        <_>
          <internalNodes>
            0 -1 109 3.9024494588375092e-02</internalNodes>
          <leafValues>
            -6.2538951635360718e-02 9.3149912357330322e-01</leafValues></_>
        <_>
          <internalNodes>
            0 -1 98 -9.0962052345275879e-03</internalNodes>
          <leafValues>
            -5.6084901094436646e-01 1.2610547244548798e-01</leafValues></_>
        <_>
          <internalNodes>
            0 -1 137 -2.4562627077102661e-03</internalNodes>
          <leafValues>
            -6.8192321062088013e-01 7.8857406973838806e-02</leafValues></_>
        <_>
          <internalNodes>
            0 -1 213 -1.9873213022947311e-04</internalNodes>
          <leafValues>
            -3.9331036806106567e-01 1.3389131426811218e-01</leafValues></_>
        <_>
          <internalNodes>
            0 -1 66 1.2917112559080124e-02</internalNodes>
          <leafValues>
            -2.5850284099578857e-01 2.1288140118122101e-01</leafValues></_>
        <_>
          <internalNodes>
            0 -1 315 -6.5073836594820023e-03</internalNodes>
          <leafValues>
            5.2228093147277832e-01 -1.0791227966547012e-01</leafValues></_>
        <_>
          <internalNodes>
            0 -1 21 3.6384729901328683e-04</internalNodes>
          <leafValues>
            -1.8944501876831055e-01 3.0286023020744324e-01</leafValues></_>
        <_>
          <internalNodes>
            0 -1 119 1.1877762153744698e-03</internalNodes>
          <leafValues>
            -2.2108237445354462e-01 2.3321206867694855e-01</leafValues></_>
        <_>
          <internalNodes>
            0 -1 317 -2.2256406955420971e-03</internalNodes>
          <leafValues>
            3.0463591217994690e-01 -1.6992421448230743e-01</leafValues></_>
        <_>
          <internalNodes>
            0 -1 31 9.6900470554828644e-02</internalNodes>
          <leafValues>
            -1.0665558278560638e-01 5.1282763481140137e-01</leafValues></_>
        <_>
          <internalNodes>
            0 -1 71 -7.5292948167771101e-04</internalNodes>
          <leafValues>
            2.6466000080108643e-01 -2.6855489611625671e-01</leafValues></_>
        <_>
          <internalNodes>
            0 -1 246 1.9237255910411477e-03</internalNodes>
          <leafValues>
            -1.9626915454864502e-01 3.1217432022094727e-01</leafValues></_>
        <_>
          <internalNodes>
            0 -1 26 -2.6264108717441559e-02</internalNodes>
          <leafValues>
            4.1607114672660828e-01 -1.6003753244876862e-01</leafValues></_></weakClassifiers></_>
    <!-- stage 16 -->
    <_>
      <maxWeakCount>26</maxWeakCount>
      <stageThreshold>-5.8208996057510376e-01</stageThreshold>
      <weakClassifiers>
        <_>
          <internalNodes>
            0 -1 107 -9.0765878558158875e-02</internalNodes>
          <leafValues>
            5.9558820724487305e-01 6.8669527769088745e-02</leafValues></_>
        <_>
          <internalNodes>
            0 -1 225 -2.3094643838703632e-03</internalNodes>
          <leafValues>
            3.3178013563156128e-01 -1.4954884350299835e-01</leafValues></_>
        <_>
          <internalNodes>
            0 -1 187 7.1060904301702976e-03</internalNodes>
          <leafValues>
            -2.1248735487461090e-01 2.5840887427330017e-01</leafValues></_>
        <_>
          <internalNodes>
            0 -1 292 7.1840069722384214e-04</internalNodes>
          <leafValues>
            -1.4092196524143219e-01 3.5222369432449341e-01</leafValues></_>
        <_>
          <internalNodes>
            0 -1 156 4.1705416515469551e-03</internalNodes>
          <leafValues>
            4.0349815040826797e-02 -6.8844842910766602e-01</leafValues></_>
        <_>
          <internalNodes>
            0 -1 171 5.9979837387800217e-03</internalNodes>
          <leafValues>
            6.3156224787235260e-02 -7.8459900617599487e-01</leafValues></_>
        <_>
          <internalNodes>
            0 -1 241 3.2353620044887066e-03</internalNodes>
          <leafValues>
            1.0515989363193512e-01 -4.5165210962295532e-01</leafValues></_>
        <_>
          <internalNodes>
            0 -1 154 -1.6343239694833755e-02</internalNodes>
          <leafValues>
            -5.4296267032623291e-01 1.0484979301691055e-01</leafValues></_>
        <_>
          <internalNodes>
            0 -1 103 -6.6264253109693527e-04</internalNodes>
          <leafValues>
            1.5036278963088989e-01 -3.5429546236991882e-01</leafValues></_>
        <_>
          <internalNodes>
            0 -1 18 9.8510809242725372e-02</internalNodes>
          <leafValues>
            -1.2005532532930374e-01 4.5145422220230103e-01</leafValues></_>
        <_>
          <internalNodes>
            0 -1 271 2.0012203603982925e-02</internalNodes>
          <leafValues>
            -1.0590194910764694e-01 5.6047946214675903e-01</leafValues></_>
        <_>
          <internalNodes>
            0 -1 283 -2.6123281568288803e-02</internalNodes>
          <leafValues>
            4.2591226100921631e-01 -1.3601517677307129e-01</leafValues></_>
        <_>
          <internalNodes>
            0 -1 234 8.0383028835058212e-03</internalNodes>
          <leafValues>
            -1.5013375878334045e-01 3.3993783593177795e-01</leafValues></_>
        <_>
          <internalNodes>
            0 -1 203 -1.4529484324157238e-03</internalNodes>
          <leafValues>
            3.1929692625999451e-01 -1.6043046116828918e-01</leafValues></_>
        <_>
          <internalNodes>
            0 -1 302 -1.1096490547060966e-02</internalNodes>
          <leafValues>
            4.2861393094062805e-01 -1.2449058890342712e-01</leafValues></_>
        <_>
          <internalNodes>
            0 -1 291 4.8867939040064812e-03</internalNodes>
          <leafValues>
            -1.1062180995941162e-01 4.5342394709587097e-01</leafValues></_>
        <_>
          <internalNodes>
            0 -1 12 -2.0232222974300385e-02</internalNodes>
          <leafValues>
            -6.3596385717391968e-01 8.3434276282787323e-02</leafValues></_>
        <_>
          <internalNodes>
            0 -1 73 -9.8121948540210724e-03</internalNodes>
          <leafValues>
            7.8825718164443970e-01 -6.9332890212535858e-02</leafValues></_>
        <_>
          <internalNodes>
            0 -1 114 1.1140025453642011e-03</internalNodes>
          <leafValues>
            -1.2095866352319717e-01 4.0646183490753174e-01</leafValues></_>
        <_>
          <internalNodes>
            0 -1 279 -2.2880204487591982e-03</internalNodes>
          <leafValues>
            2.7216905355453491e-01 -1.8128882348537445e-01</leafValues></_>
        <_>
          <internalNodes>
            0 -1 253 -2.5743003934621811e-02</internalNodes>
          <leafValues>
            -5.8243775367736816e-01 8.6479768157005310e-02</leafValues></_>
        <_>
          <internalNodes>
            0 -1 196 1.7189268022775650e-02</internalNodes>
          <leafValues>
            -9.6819631755352020e-02 5.2018064260482788e-01</leafValues></_>
        <_>
          <internalNodes>
            0 -1 160 1.4801012352108955e-02</internalNodes>
          <leafValues>
            -8.2669481635093689e-02 5.8693844079971313e-01</leafValues></_>
        <_>
          <internalNodes>
            0 -1 267 -9.2054586857557297e-03</internalNodes>
          <leafValues>
            -7.1004402637481689e-01 7.8561246395111084e-02</leafValues></_>
        <_>
          <internalNodes>
            0 -1 257 5.1539868582040071e-04</internalNodes>
          <leafValues>
            -2.4772861599922180e-01 1.8418234586715698e-01</leafValues></_>
        <_>
          <internalNodes>
            0 -1 40 3.4200203418731689e-01</internalNodes>
          <leafValues>
            -1.1488422751426697e-01 4.2486026883125305e-01</leafValues></_></weakClassifiers></_></stages>
  <features>
    <_>
      <rects>
        <_>
          0 0 2 19 -1.</_>
        <_>
          1 0 1 19 2.</_></rects>
      <tilted>0</tilted></_>
    <_>
      <rects>
        <_>
          0 0 6 14 -1.</_>
        <_>
          0 0 3 7 2.</_>
        <_>
          3 7 3 7 2.</_></rects>
      <tilted>0</tilted></_>
    <_>
      <rects>
        <_>
          0 1 8 16 -1.</_>
        <_>
          4 1 4 16 2.</_></rects>
      <tilted>0</tilted></_>
    <_>
      <rects>
        <_>
          0 3 6 8 -1.</_>
        <_>
          2 3 2 8 3.</_></rects>
      <tilted>0</tilted></_>
    <_>
      <rects>
        <_>
          0 4 4 7 -1.</_>
        <_>
          2 4 2 7 2.</_></rects>
      <tilted>0</tilted></_>
    <_>
      <rects>
        <_>
          0 5 10 9 -1.</_>
        <_>
          5 5 5 9 2.</_></rects>
      <tilted>0</tilted></_>
    <_>
      <rects>
        <_>
          0 6 4 2 -1.</_>
        <_>
          2 6 2 2 2.</_></rects>
      <tilted>0</tilted></_>
    <_>
      <rects>
        <_>
          0 6 6 5 -1.</_>
        <_>
          2 6 2 5 3.</_></rects>
      <tilted>0</tilted></_>
    <_>
      <rects>
        <_>
          0 6 6 3 -1.</_>
        <_>
          3 6 3 3 2.</_></rects>
      <tilted>0</tilted></_>
    <_>
      <rects>
        <_>
          0 7 6 2 -1.</_>
        <_>
          2 7 2 2 3.</_></rects>
      <tilted>0</tilted></_>
    <_>
      <rects>
        <_>
          0 7 6 4 -1.</_>
        <_>
          2 7 2 4 3.</_></rects>
      <tilted>0</tilted></_>
    <_>
      <rects>
        <_>
          0 7 8 8 -1.</_>
        <_>
          4 7 4 8 2.</_></rects>
      <tilted>0</tilted></_>
    <_>
      <rects>
        <_>
          0 7 18 3 -1.</_>
        <_>
          0 8 18 1 3.</_></rects>
      <tilted>0</tilted></_>
    <_>
      <rects>
        <_>
          0 8 4 7 -1.</_>
        <_>
          2 8 2 7 2.</_></rects>
      <tilted>0</tilted></_>
    <_>
      <rects>
        <_>
          0 8 6 7 -1.</_>
        <_>
          3 8 3 7 2.</_></rects>
      <tilted>0</tilted></_>
    <_>
      <rects>
        <_>
          0 8 6 10 -1.</_>
        <_>
          3 8 3 10 2.</_></rects>
      <tilted>0</tilted></_>
    <_>
      <rects>
        <_>
          0 9 4 4 -1.</_>
        <_>
          2 9 2 4 2.</_></rects>
      <tilted>0</tilted></_>
    <_>
      <rects>
        <_>
          0 9 6 4 -1.</_>
        <_>
          0 9 3 2 2.</_>
        <_>
          3 11 3 2 2.</_></rects>
      <tilted>0</tilted></_>
    <_>
      <rects>
        <_>
          0 9 6 9 -1.</_>
        <_>
          3 9 3 9 2.</_></rects>
      <tilted>0</tilted></_>
    <_>
      <rects>
        <_>
          0 9 8 7 -1.</_>
        <_>
          4 9 4 7 2.</_></rects>
      <tilted>0</tilted></_>
    <_>
      <rects>
        <_>
          0 9 10 6 -1.</_>
        <_>
          5 9 5 6 2.</_></rects>
      <tilted>0</tilted></_>
    <_>
      <rects>
        <_>
          0 10 2 4 -1.</_>
        <_>
          0 10 1 2 2.</_>
        <_>
          1 12 1 2 2.</_></rects>
      <tilted>0</tilted></_>
    <_>
      <rects>
        <_>
          0 10 6 3 -1.</_>
        <_>
          3 10 3 3 2.</_></rects>
      <tilted>0</tilted></_>
    <_>
      <rects>
        <_>
          0 10 6 5 -1.</_>
        <_>
          3 10 3 5 2.</_></rects>
      <tilted>0</tilted></_>
    <_>
      <rects>
        <_>
          0 10 3 10 -1.</_>
        <_>
          0 15 3 5 2.</_></rects>
      <tilted>0</tilted></_>
    <_>
      <rects>
        <_>
          0 13 1 6 -1.</_>
        <_>
          0 15 1 2 3.</_></rects>
      <tilted>0</tilted></_>
    <_>
      <rects>
        <_>
          0 14 12 4 -1.</_>
        <_>
          0 14 6 2 2.</_>
        <_>
          6 16 6 2 2.</_></rects>
      <tilted>0</tilted></_>
    <_>
      <rects>
        <_>
          0 15 14 4 -1.</_>
        <_>
          0 15 7 2 2.</_>
        <_>
          7 17 7 2 2.</_></rects>
      <tilted>0</tilted></_>
    <_>
      <rects>
        <_>
          0 16 12 4 -1.</_>
        <_>
          0 16 6 2 2.</_>
        <_>
          6 18 6 2 2.</_></rects>
      <tilted>0</tilted></_>
    <_>
      <rects>
        <_>
          0 16 14 4 -1.</_>
        <_>
          0 16 7 2 2.</_>
        <_>
          7 18 7 2 2.</_></rects>
      <tilted>0</tilted></_>
    <_>
      <rects>
        <_>
          1 0 7 6 -1.</_>
        <_>
          1 3 7 3 2.</_></rects>
      <tilted>0</tilted></_>
    <_>
      <rects>
        <_>
          1 0 14 6 -1.</_>
        <_>
          1 3 14 3 2.</_></rects>
      <tilted>0</tilted></_>
    <_>
      <rects>
        <_>
          1 0 17 8 -1.</_>
        <_>
          1 4 17 4 2.</_></rects>
      <tilted>0</tilted></_>
    <_>
      <rects>
        <_>
          1 1 5 8 -1.</_>
        <_>
          1 5 5 4 2.</_></rects>
      <tilted>0</tilted></_>
    <_>
      <rects>
        <_>
          1 1 14 8 -1.</_>
        <_>
          1 1 7 4 2.</_>
        <_>
          8 5 7 4 2.</_></rects>
      <tilted>0</tilted></_>
    <_>
      <rects>
        <_>
          1 1 16 4 -1.</_>
        <_>
          1 1 8 2 2.</_>
        <_>
          9 3 8 2 2.</_></rects>
      <tilted>0</tilted></_>
    <_>
      <rects>
        <_>
          1 1 11 4 -1.</_>
        <_>
          1 3 11 2 2.</_></rects>
      <tilted>0</tilted></_>
    <_>
      <rects>
        <_>
          1 4 10 14 -1.</_>
        <_>
          6 4 5 14 2.</_></rects>
      <tilted>0</tilted></_>
    <_>
      <rects>
        <_>
          1 7 3 5 -1.</_>
        <_>
          2 7 1 5 3.</_></rects>
      <tilted>0</tilted></_>
    <_>
      <rects>
        <_>
          1 8 1 6 -1.</_>
        <_>
          1 10 1 2 3.</_></rects>
      <tilted>0</tilted></_>
    <_>
      <rects>
        <_>
          1 8 18 10 -1.</_>
        <_>
          7 8 6 10 3.</_></rects>
      <tilted>0</tilted></_>
    <_>
      <rects>
        <_>
          1 9 2 8 -1.</_>
        <_>
          1 9 1 4 2.</_>
        <_>
          2 13 1 4 2.</_></rects>
      <tilted>0</tilted></_>
    <_>
      <rects>
        <_>
          1 9 6 2 -1.</_>
        <_>
          3 9 2 2 3.</_></rects>
      <tilted>0</tilted></_>
    <_>
      <rects>
        <_>
          1 9 4 8 -1.</_>
        <_>
          1 9 2 4 2.</_>
        <_>
          3 13 2 4 2.</_></rects>
      <tilted>0</tilted></_>
    <_>
      <rects>
        <_>
          1 10 10 1 -1.</_>
        <_>
          6 10 5 1 2.</_></rects>
      <tilted>0</tilted></_>
    <_>
      <rects>
        <_>
          1 10 10 2 -1.</_>
        <_>
          6 10 5 2 2.</_></rects>
      <tilted>0</tilted></_>
    <_>
      <rects>
        <_>
          1 11 4 1 -1.</_>
        <_>
          3 11 2 1 2.</_></rects>
      <tilted>0</tilted></_>
    <_>
      <rects>
        <_>
          1 12 6 4 -1.</_>
        <_>
          4 12 3 4 2.</_></rects>
      <tilted>0</tilted></_>
    <_>
      <rects>
        <_>
          1 14 6 4 -1.</_>
        <_>
          1 14 3 2 2.</_>
        <_>
          4 16 3 2 2.</_></rects>
      <tilted>0</tilted></_>
    <_>
      <rects>
        <_>
          1 15 18 2 -1.</_>
        <_>
          7 15 6 2 3.</_></rects>
      <tilted>0</tilted></_>
    <_>
      <rects>
        <_>
          1 16 18 1 -1.</_>
        <_>
          7 16 6 1 3.</_></rects>
      <tilted>0</tilted></_>
    <_>
      <rects>
        <_>
          2 1 16 18 -1.</_>
        <_>
          2 1 8 9 2.</_>
        <_>
          10 10 8 9 2.</_></rects>
      <tilted>0</tilted></_>
    <_>
      <rects>
        <_>
          2 4 14 16 -1.</_>
        <_>
          2 4 7 8 2.</_>
        <_>
          9 12 7 8 2.</_></rects>
      <tilted>0</tilted></_>
    <_>
      <rects>
        <_>
          2 5 12 6 -1.</_>
        <_>
          2 5 6 3 2.</_>
        <_>
          8 8 6 3 2.</_></rects>
      <tilted>0</tilted></_>
    <_>
      <rects>
        <_>
          2 6 2 2 -1.</_>
        <_>
          2 6 1 1 2.</_>
        <_>
          3 7 1 1 2.</_></rects>
      <tilted>0</tilted></_>
    <_>
      <rects>
        <_>
          2 6 4 10 -1.</_>
        <_>
          2 6 2 5 2.</_>
        <_>
          4 11 2 5 2.</_></rects>
      <tilted>0</tilted></_>
    <_>
      <rects>
        <_>
          2 6 18 12 -1.</_>
        <_>
          8 6 6 12 3.</_></rects>
      <tilted>0</tilted></_>
    <_>
      <rects>
        <_>
          2 7 3 6 -1.</_>
        <_>
          3 7 1 6 3.</_></rects>
      <tilted>0</tilted></_>
    <_>
      <rects>
        <_>
          2 7 6 5 -1.</_>
        <_>
          4 7 2 5 3.</_></rects>
      <tilted>0</tilted></_>
    <_>
      <rects>
        <_>
          2 7 18 12 -1.</_>
        <_>
          2 7 9 6 2.</_>
        <_>
          11 13 9 6 2.</_></rects>
      <tilted>0</tilted></_>
    <_>
      <rects>
        <_>
          2 8 4 2 -1.</_>
        <_>
          4 8 2 2 2.</_></rects>
      <tilted>0</tilted></_>
    <_>
      <rects>
        <_>
          2 8 4 6 -1.</_>
        <_>
          2 8 2 3 2.</_>
        <_>
          4 11 2 3 2.</_></rects>
      <tilted>0</tilted></_>
    <_>
      <rects>
        <_>
          2 10 18 1 -1.</_>
        <_>
          8 10 6 1 3.</_></rects>
      <tilted>0</tilted></_>
    <_>
      <rects>
        <_>
          2 12 9 3 -1.</_>
        <_>
          5 12 3 3 3.</_></rects>
      <tilted>0</tilted></_>
    <_>
      <rects>
        <_>
          2 12 16 8 -1.</_>
        <_>
          2 16 16 4 2.</_></rects>
      <tilted>0</tilted></_>
    <_>
      <rects>
        <_>
          2 13 4 2 -1.</_>
        <_>
          4 13 2 2 2.</_></rects>
      <tilted>0</tilted></_>
    <_>
      <rects>
        <_>
          2 13 9 2 -1.</_>
        <_>
          5 13 3 2 3.</_></rects>
      <tilted>0</tilted></_>
    <_>
      <rects>
        <_>
          2 13 16 3 -1.</_>
        <_>
          10 13 8 3 2.</_></rects>
      <tilted>0</tilted></_>
    <_>
      <rects>
        <_>
          2 13 9 2 -1.</_>
        <_>
          2 14 9 1 2.</_></rects>
      <tilted>0</tilted></_>
    <_>
      <rects>
        <_>
          2 18 10 2 -1.</_>
        <_>
          2 18 5 1 2.</_>
        <_>
          7 19 5 1 2.</_></rects>
      <tilted>0</tilted></_>
    <_>
      <rects>
        <_>
          3 0 7 10 -1.</_>
        <_>
          3 5 7 5 2.</_></rects>
      <tilted>0</tilted></_>
    <_>
      <rects>
        <_>
          3 1 2 9 -1.</_>
        <_>
          3 4 2 3 3.</_></rects>
      <tilted>0</tilted></_>
    <_>
      <rects>
        <_>
          3 2 14 18 -1.</_>
        <_>
          3 8 14 6 3.</_></rects>
      <tilted>0</tilted></_>
    <_>
      <rects>
        <_>
          3 4 2 4 -1.</_>
        <_>
          3 6 2 2 2.</_></rects>
      <tilted>0</tilted></_>
    <_>
      <rects>
        <_>
          3 5 3 5 -1.</_>
        <_>
          4 5 1 5 3.</_></rects>
      <tilted>0</tilted></_>
    <_>
      <rects>
        <_>
          3 5 14 15 -1.</_>
        <_>
          3 10 14 5 3.</_></rects>
      <tilted>0</tilted></_>
    <_>
      <rects>
        <_>
          3 6 2 2 -1.</_>
        <_>
          3 6 1 1 2.</_>
        <_>
          4 7 1 1 2.</_></rects>
      <tilted>0</tilted></_>
    <_>
      <rects>
        <_>
          3 7 12 8 -1.</_>
        <_>
          7 7 4 8 3.</_></rects>
      <tilted>0</tilted></_>
    <_>
      <rects>
        <_>
          3 10 6 4 -1.</_>
        <_>
          3 10 3 2 2.</_>
        <_>
          6 12 3 2 2.</_></rects>
      <tilted>0</tilted></_>
    <_>
      <rects>
        <_>
          3 11 2 5 -1.</_>
        <_>
          4 11 1 5 2.</_></rects>
      <tilted>0</tilted></_>
    <_>
      <rects>
        <_>
          3 11 6 4 -1.</_>
        <_>
          3 11 3 2 2.</_>
        <_>
          6 13 3 2 2.</_></rects>
      <tilted>0</tilted></_>
    <_>
      <rects>
        <_>
          3 11 5 4 -1.</_>
        <_>
          3 13 5 2 2.</_></rects>
      <tilted>0</tilted></_>
    <_>
      <rects>
        <_>
          3 14 6 4 -1.</_>
        <_>
          3 14 3 2 2.</_>
        <_>
          6 16 3 2 2.</_></rects>
      <tilted>0</tilted></_>
    <_>
      <rects>
        <_>
          3 14 6 6 -1.</_>
        <_>
          3 14 3 3 2.</_>
        <_>
          6 17 3 3 2.</_></rects>
      <tilted>0</tilted></_>
    <_>
      <rects>
        <_>
          3 14 5 6 -1.</_>
        <_>
          3 17 5 3 2.</_></rects>
      <tilted>0</tilted></_>
    <_>
      <rects>
        <_>
          3 14 14 6 -1.</_>
        <_>
          3 17 14 3 2.</_></rects>
      <tilted>0</tilted></_>
    <_>
      <rects>
        <_>
          4 0 8 4 -1.</_>
        <_>
          4 2 8 2 2.</_></rects>
      <tilted>0</tilted></_>
    <_>
      <rects>
        <_>
          4 0 10 4 -1.</_>
        <_>
          4 2 10 2 2.</_></rects>
      <tilted>0</tilted></_>
    <_>
      <rects>
        <_>
          4 0 12 4 -1.</_>
        <_>
          4 2 12 2 2.</_></rects>
      <tilted>0</tilted></_>
    <_>
      <rects>
        <_>
          4 0 12 14 -1.</_>
        <_>
          4 7 12 7 2.</_></rects>
      <tilted>0</tilted></_>
    <_>
      <rects>
        <_>
          4 0 15 14 -1.</_>
        <_>
          4 7 15 7 2.</_></rects>
      <tilted>0</tilted></_>
    <_>
      <rects>
        <_>
          4 1 4 12 -1.</_>
        <_>
          4 5 4 4 3.</_></rects>
      <tilted>0</tilted></_>
    <_>
      <rects>
        <_>
          4 2 6 17 -1.</_>
        <_>
          7 2 3 17 2.</_></rects>
      <tilted>0</tilted></_>
    <_>
      <rects>
        <_>
          4 2 5 16 -1.</_>
        <_>
          4 10 5 8 2.</_></rects>
      <tilted>0</tilted></_>
    <_>
      <rects>
        <_>
          4 2 12 18 -1.</_>
        <_>
          4 8 12 6 3.</_></rects>
      <tilted>0</tilted></_>
    <_>
      <rects>
        <_>
          4 4 1 3 -1.</_>
        <_>
          4 5 1 1 3.</_></rects>
      <tilted>0</tilted></_>
    <_>
      <rects>
        <_>
          4 6 1 3 -1.</_>
        <_>
          4 7 1 1 3.</_></rects>
      <tilted>0</tilted></_>
    <_>
      <rects>
        <_>
          4 7 13 9 -1.</_>
        <_>
          4 10 13 3 3.</_></rects>
      <tilted>0</tilted></_>
    <_>
      <rects>
        <_>
          4 9 3 9 -1.</_>
        <_>
          5 9 1 9 3.</_></rects>
      <tilted>0</tilted></_>
    <_>
      <rects>
        <_>
          4 11 4 6 -1.</_>
        <_>
          4 11 2 3 2.</_>
        <_>
          6 14 2 3 2.</_></rects>
      <tilted>0</tilted></_>
    <_>
      <rects>
        <_>
          4 12 6 6 -1.</_>
        <_>
          4 12 3 3 2.</_>
        <_>
          7 15 3 3 2.</_></rects>
      <tilted>0</tilted></_>
    <_>
      <rects>
        <_>
          4 13 2 2 -1.</_>
        <_>
          4 13 1 1 2.</_>
        <_>
          5 14 1 1 2.</_></rects>
      <tilted>0</tilted></_>
    <_>
      <rects>
        <_>
          4 13 4 4 -1.</_>
        <_>
          4 13 2 2 2.</_>
        <_>
          6 15 2 2 2.</_></rects>
      <tilted>0</tilted></_>
    <_>
      <rects>
        <_>
          4 14 3 2 -1.</_>
        <_>
          4 15 3 1 2.</_></rects>
      <tilted>0</tilted></_>
    <_>
      <rects>
        <_>
          4 14 6 4 -1.</_>
        <_>
          4 14 3 2 2.</_>
        <_>
          7 16 3 2 2.</_></rects>
      <tilted>0</tilted></_>
    <_>
      <rects>
        <_>
          4 14 4 2 -1.</_>
        <_>
          4 15 4 1 2.</_></rects>
      <tilted>0</tilted></_>
    <_>
      <rects>
        <_>
          4 14 11 6 -1.</_>
        <_>
          4 17 11 3 2.</_></rects>
      <tilted>0</tilted></_>
    <_>
      <rects>
        <_>
          4 14 12 6 -1.</_>
        <_>
          4 17 12 3 2.</_></rects>
      <tilted>0</tilted></_>
    <_>
      <rects>
        <_>
          4 15 12 3 -1.</_>
        <_>
          8 15 4 3 3.</_></rects>
      <tilted>0</tilted></_>
    <_>
      <rects>
        <_>
          4 16 15 4 -1.</_>
        <_>
          4 18 15 2 2.</_></rects>
      <tilted>0</tilted></_>
    <_>
      <rects>
        <_>
          5 0 3 2 -1.</_>
        <_>
          5 1 3 1 2.</_></rects>
      <tilted>0</tilted></_>
    <_>
      <rects>
        <_>
          5 0 8 8 -1.</_>
        <_>
          5 0 4 4 2.</_>
        <_>
          9 4 4 4 2.</_></rects>
      <tilted>0</tilted></_>
    <_>
      <rects>
        <_>
          5 0 6 4 -1.</_>
        <_>
          5 2 6 2 2.</_></rects>
      <tilted>0</tilted></_>
    <_>
      <rects>
        <_>
          5 0 7 9 -1.</_>
        <_>
          5 3 7 3 3.</_></rects>
      <tilted>0</tilted></_>
    <_>
      <rects>
        <_>
          5 4 1 2 -1.</_>
        <_>
          5 5 1 1 2.</_></rects>
      <tilted>0</tilted></_>
    <_>
      <rects>
        <_>
          5 5 2 15 -1.</_>
        <_>
          5 10 2 5 3.</_></rects>
      <tilted>0</tilted></_>
    <_>
      <rects>
        <_>
          5 7 2 12 -1.</_>
        <_>
          5 11 2 4 3.</_></rects>
      <tilted>0</tilted></_>
    <_>
      <rects>
        <_>
          5 7 9 4 -1.</_>
        <_>
          8 7 3 4 3.</_></rects>
      <tilted>0</tilted></_>
    <_>
      <rects>
        <_>
          5 9 3 8 -1.</_>
        <_>
          6 9 1 8 3.</_></rects>
      <tilted>0</tilted></_>
    <_>
      <rects>
        <_>
          5 9 9 3 -1.</_>
        <_>
          5 10 9 1 3.</_></rects>
      <tilted>0</tilted></_>
    <_>
      <rects>
        <_>
          5 10 15 4 -1.</_>
        <_>
          10 10 5 4 3.</_></rects>
      <tilted>0</tilted></_>
    <_>
      <rects>
        <_>
          5 11 2 6 -1.</_>
        <_>
          6 11 1 6 2.</_></rects>
      <tilted>0</tilted></_>
    <_>
      <rects>
        <_>
          5 11 2 3 -1.</_>
        <_>
          5 12 2 1 3.</_></rects>
      <tilted>0</tilted></_>
    <_>
      <rects>
        <_>
          5 13 3 4 -1.</_>
        <_>
          6 13 1 4 3.</_></rects>
      <tilted>0</tilted></_>
    <_>
      <rects>
        <_>
          5 14 2 4 -1.</_>
        <_>
          6 14 1 4 2.</_></rects>
      <tilted>0</tilted></_>
    <_>
      <rects>
        <_>
          5 14 4 2 -1.</_>
        <_>
          5 14 2 1 2.</_>
        <_>
          7 15 2 1 2.</_></rects>
      <tilted>0</tilted></_>
    <_>
      <rects>
        <_>
          5 14 10 6 -1.</_>
        <_>
          5 17 10 3 2.</_></rects>
      <tilted>0</tilted></_>
    <_>
      <rects>
        <_>
          5 15 2 2 -1.</_>
        <_>
          6 15 1 2 2.</_></rects>
      <tilted>0</tilted></_>
    <_>
      <rects>
        <_>
          6 0 14 7 -1.</_>
        <_>
          13 0 7 7 2.</_></rects>
      <tilted>0</tilted></_>
    <_>
      <rects>
        <_>
          6 0 10 2 -1.</_>
        <_>
          6 1 10 1 2.</_></rects>
      <tilted>0</tilted></_>
    <_>
      <rects>
        <_>
          6 0 11 4 -1.</_>
        <_>
          6 2 11 2 2.</_></rects>
      <tilted>0</tilted></_>
    <_>
      <rects>
        <_>
          6 5 13 3 -1.</_>
        <_>
          6 6 13 1 3.</_></rects>
      <tilted>0</tilted></_>
    <_>
      <rects>
        <_>
          6 6 9 2 -1.</_>
        <_>
          9 6 3 2 3.</_></rects>
      <tilted>0</tilted></_>
    <_>
      <rects>
        <_>
          6 6 8 4 -1.</_>
        <_>
          6 8 8 2 2.</_></rects>
      <tilted>0</tilted></_>
    <_>
      <rects>
        <_>
          6 10 3 6 -1.</_>
        <_>
          7 10 1 6 3.</_></rects>
      <tilted>0</tilted></_>
    <_>
      <rects>
        <_>
          6 10 9 6 -1.</_>
        <_>
          6 12 9 2 3.</_></rects>
      <tilted>0</tilted></_>
    <_>
      <rects>
        <_>
          6 11 3 1 -1.</_>
        <_>
          7 11 1 1 3.</_></rects>
      <tilted>0</tilted></_>
    <_>
      <rects>
        <_>
          6 11 2 2 -1.</_>
        <_>
          7 11 1 2 2.</_></rects>
      <tilted>0</tilted></_>
    <_>
      <rects>
        <_>
          6 12 3 4 -1.</_>
        <_>
          7 12 1 4 3.</_></rects>
      <tilted>0</tilted></_>
    <_>
      <rects>
        <_>
          6 12 4 6 -1.</_>
        <_>
          6 12 2 3 2.</_>
        <_>
          8 15 2 3 2.</_></rects>
      <tilted>0</tilted></_>
    <_>
      <rects>
        <_>
          6 15 4 2 -1.</_>
        <_>
          6 15 2 1 2.</_>
        <_>
          8 16 2 1 2.</_></rects>
      <tilted>0</tilted></_>
    <_>
      <rects>
        <_>
          6 16 2 4 -1.</_>
        <_>
          6 18 2 2 2.</_></rects>
      <tilted>0</tilted></_>
    <_>
      <rects>
        <_>
          6 18 9 2 -1.</_>
        <_>
          6 19 9 1 2.</_></rects>
      <tilted>0</tilted></_>
    <_>
      <rects>
        <_>
          7 2 2 2 -1.</_>
        <_>
          7 2 1 1 2.</_>
        <_>
          8 3 1 1 2.</_></rects>
      <tilted>0</tilted></_>
    <_>
      <rects>
        <_>
          7 2 12 14 -1.</_>
        <_>
          7 2 6 7 2.</_>
        <_>
          13 9 6 7 2.</_></rects>
      <tilted>0</tilted></_>
    <_>
      <rects>
        <_>
          7 4 3 3 -1.</_>
        <_>
          8 4 1 3 3.</_></rects>
      <tilted>0</tilted></_>
    <_>
      <rects>
        <_>
          7 5 3 13 -1.</_>
        <_>
          8 5 1 13 3.</_></rects>
      <tilted>0</tilted></_>
    <_>
      <rects>
        <_>
          7 6 6 1 -1.</_>
        <_>
          9 6 2 1 3.</_></rects>
      <tilted>0</tilted></_>
    <_>
      <rects>
        <_>
          7 6 8 3 -1.</_>
        <_>
          7 7 8 1 3.</_></rects>
      <tilted>0</tilted></_>
    <_>
      <rects>
        <_>
          7 8 3 12 -1.</_>
        <_>
          8 8 1 12 3.</_></rects>
      <tilted>0</tilted></_>
    <_>
      <rects>
        <_>
          7 10 12 1 -1.</_>
        <_>
          11 10 4 1 3.</_></rects>
      <tilted>0</tilted></_>
    <_>
      <rects>
        <_>
          7 10 7 6 -1.</_>
        <_>
          7 12 7 2 3.</_></rects>
      <tilted>0</tilted></_>
    <_>
      <rects>
        <_>
          7 12 3 1 -1.</_>
        <_>
          8 12 1 1 3.</_></rects>
      <tilted>0</tilted></_>
    <_>
      <rects>
        <_>
          7 12 6 5 -1.</_>
        <_>
          10 12 3 5 2.</_></rects>
      <tilted>0</tilted></_>
    <_>
      <rects>
        <_>
          7 12 7 4 -1.</_>
        <_>
          7 14 7 2 2.</_></rects>
      <tilted>0</tilted></_>
    <_>
      <rects>
        <_>
          7 13 3 4 -1.</_>
        <_>
          8 13 1 4 3.</_></rects>
      <tilted>0</tilted></_>
    <_>
      <rects>
        <_>
          7 15 3 2 -1.</_>
        <_>
          8 15 1 2 3.</_></rects>
      <tilted>0</tilted></_>
    <_>
      <rects>
        <_>
          7 16 6 3 -1.</_>
        <_>
          7 17 6 1 3.</_></rects>
      <tilted>0</tilted></_>
    <_>
      <rects>
        <_>
          7 16 7 4 -1.</_>
        <_>
          7 18 7 2 2.</_></rects>
      <tilted>0</tilted></_>
    <_>
      <rects>
        <_>
          7 17 5 2 -1.</_>
        <_>
          7 18 5 1 2.</_></rects>
      <tilted>0</tilted></_>
    <_>
      <rects>
        <_>
          7 18 12 2 -1.</_>
        <_>
          7 18 6 1 2.</_>
        <_>
          13 19 6 1 2.</_></rects>
      <tilted>0</tilted></_>
    <_>
      <rects>
        <_>
          8 0 2 4 -1.</_>
        <_>
          8 2 2 2 2.</_></rects>
      <tilted>0</tilted></_>
    <_>
      <rects>
        <_>
          8 0 3 4 -1.</_>
        <_>
          8 2 3 2 2.</_></rects>
      <tilted>0</tilted></_>
    <_>
      <rects>
        <_>
          8 0 5 3 -1.</_>
        <_>
          8 1 5 1 3.</_></rects>
      <tilted>0</tilted></_>
    <_>
      <rects>
        <_>
          8 0 8 4 -1.</_>
        <_>
          8 2 8 2 2.</_></rects>
      <tilted>0</tilted></_>
    <_>
      <rects>
        <_>
          8 1 4 2 -1.</_>
        <_>
          8 2 4 1 2.</_></rects>
      <tilted>0</tilted></_>
    <_>
      <rects>
        <_>
          8 3 3 12 -1.</_>
        <_>
          8 7 3 4 3.</_></rects>
      <tilted>0</tilted></_>
    <_>
      <rects>
        <_>
          8 5 4 9 -1.</_>
        <_>
          8 8 4 3 3.</_></rects>
      <tilted>0</tilted></_>
    <_>
      <rects>
        <_>
          8 8 6 5 -1.</_>
        <_>
          10 8 2 5 3.</_></rects>
      <tilted>0</tilted></_>
    <_>
      <rects>
        <_>
          8 9 4 2 -1.</_>
        <_>
          10 9 2 2 2.</_></rects>
      <tilted>0</tilted></_>
    <_>
      <rects>
        <_>
          8 11 3 4 -1.</_>
        <_>
          9 11 1 4 3.</_></rects>
      <tilted>0</tilted></_>
    <_>
      <rects>
        <_>
          8 12 3 5 -1.</_>
        <_>
          9 12 1 5 3.</_></rects>
      <tilted>0</tilted></_>
    <_>
      <rects>
        <_>
          8 12 4 4 -1.</_>
        <_>
          8 14 4 2 2.</_></rects>
      <tilted>0</tilted></_>
    <_>
      <rects>
        <_>
          8 14 5 6 -1.</_>
        <_>
          8 16 5 2 3.</_></rects>
      <tilted>0</tilted></_>
    <_>
      <rects>
        <_>
          8 15 3 2 -1.</_>
        <_>
          9 15 1 2 3.</_></rects>
      <tilted>0</tilted></_>
    <_>
      <rects>
        <_>
          8 15 10 2 -1.</_>
        <_>
          8 15 5 1 2.</_>
        <_>
          13 16 5 1 2.</_></rects>
      <tilted>0</tilted></_>
    <_>
      <rects>
        <_>
          8 15 12 4 -1.</_>
        <_>
          8 15 6 2 2.</_>
        <_>
          14 17 6 2 2.</_></rects>
      <tilted>0</tilted></_>
    <_>
      <rects>
        <_>
          8 16 5 3 -1.</_>
        <_>
          8 17 5 1 3.</_></rects>
      <tilted>0</tilted></_>
    <_>
      <rects>
        <_>
          8 16 6 4 -1.</_>
        <_>
          8 18 6 2 2.</_></rects>
      <tilted>0</tilted></_>
    <_>
      <rects>
        <_>
          8 16 12 4 -1.</_>
        <_>
          8 16 6 2 2.</_>
        <_>
          14 18 6 2 2.</_></rects>
      <tilted>0</tilted></_>
    <_>
      <rects>
        <_>
          8 17 8 2 -1.</_>
        <_>
          8 18 8 1 2.</_></rects>
      <tilted>0</tilted></_>
    <_>
      <rects>
        <_>
          8 18 6 2 -1.</_>
        <_>
          8 19 6 1 2.</_></rects>
      <tilted>0</tilted></_>
    <_>
      <rects>
        <_>
          9 0 9 12 -1.</_>
        <_>
          9 6 9 6 2.</_></rects>
      <tilted>0</tilted></_>
    <_>
      <rects>
        <_>
          9 1 8 15 -1.</_>
        <_>
          9 6 8 5 3.</_></rects>
      <tilted>0</tilted></_>
    <_>
      <rects>
        <_>
          9 3 4 2 -1.</_>
        <_>
          9 3 2 1 2.</_>
        <_>
          11 4 2 1 2.</_></rects>
      <tilted>0</tilted></_>
    <_>
      <rects>
        <_>
          9 4 3 4 -1.</_>
        <_>
          10 4 1 4 3.</_></rects>
      <tilted>0</tilted></_>
    <_>
      <rects>
        <_>
          9 4 4 6 -1.</_>
        <_>
          9 4 2 3 2.</_>
        <_>
          11 7 2 3 2.</_></rects>
      <tilted>0</tilted></_>
    <_>
      <rects>
        <_>
          9 4 3 9 -1.</_>
        <_>
          9 7 3 3 3.</_></rects>
      <tilted>0</tilted></_>
    <_>
      <rects>
        <_>
          9 8 3 3 -1.</_>
        <_>
          9 9 3 1 3.</_></rects>
      <tilted>0</tilted></_>
    <_>
      <rects>
        <_>
          9 9 3 10 -1.</_>
        <_>
          10 9 1 10 3.</_></rects>
      <tilted>0</tilted></_>
    <_>
      <rects>
        <_>
          9 10 3 1 -1.</_>
        <_>
          10 10 1 1 3.</_></rects>
      <tilted>0</tilted></_>
    <_>
      <rects>
        <_>
          9 11 3 7 -1.</_>
        <_>
          10 11 1 7 3.</_></rects>
      <tilted>0</tilted></_>
    <_>
      <rects>
        <_>
          9 12 2 6 -1.</_>
        <_>
          9 12 1 3 2.</_>
        <_>
          10 15 1 3 2.</_></rects>
      <tilted>0</tilted></_>
    <_>
      <rects>
        <_>
          9 13 3 3 -1.</_>
        <_>
          10 13 1 3 3.</_></rects>
      <tilted>0</tilted></_>
    <_>
      <rects>
        <_>
          9 13 8 2 -1.</_>
        <_>
          9 13 4 1 2.</_>
        <_>
          13 14 4 1 2.</_></rects>
      <tilted>0</tilted></_>
    <_>
      <rects>
        <_>
          9 14 1 6 -1.</_>
        <_>
          9 17 1 3 2.</_></rects>
      <tilted>0</tilted></_>
    <_>
      <rects>
        <_>
          9 15 6 4 -1.</_>
        <_>
          9 15 3 2 2.</_>
        <_>
          12 17 3 2 2.</_></rects>
      <tilted>0</tilted></_>
    <_>
      <rects>
        <_>
          9 16 2 3 -1.</_>
        <_>
          9 17 2 1 3.</_></rects>
      <tilted>0</tilted></_>
    <_>
      <rects>
        <_>
          9 16 4 3 -1.</_>
        <_>
          9 17 4 1 3.</_></rects>
      <tilted>0</tilted></_>
    <_>
      <rects>
        <_>
          9 16 8 4 -1.</_>
        <_>
          9 16 4 2 2.</_>
        <_>
          13 18 4 2 2.</_></rects>
      <tilted>0</tilted></_>
    <_>
      <rects>
        <_>
          9 18 2 2 -1.</_>
        <_>
          9 19 2 1 2.</_></rects>
      <tilted>0</tilted></_>
    <_>
      <rects>
        <_>
          9 18 3 2 -1.</_>
        <_>
          9 19 3 1 2.</_></rects>
      <tilted>0</tilted></_>
    <_>
      <rects>
        <_>
          10 0 1 6 -1.</_>
        <_>
          10 2 1 2 3.</_></rects>
      <tilted>0</tilted></_>
    <_>
      <rects>
        <_>
          10 0 2 3 -1.</_>
        <_>
          10 1 2 1 3.</_></rects>
      <tilted>0</tilted></_>
    <_>
      <rects>
        <_>
          10 0 2 4 -1.</_>
        <_>
          10 2 2 2 2.</_></rects>
      <tilted>0</tilted></_>
    <_>
      <rects>
        <_>
          10 2 2 4 -1.</_>
        <_>
          10 2 1 2 2.</_>
        <_>
          11 4 1 2 2.</_></rects>
      <tilted>0</tilted></_>
    <_>
      <rects>
